{"learner":{"attributes":{"scikit_learn":"{\"_estimator_type\": \"regressor\"}"},"feature_names":[],"feature_types":[],"gradient_booster":{"model":{"gbtree_model_param":{"num_parallel_tree":"1","num_trees":"832"},"iteration_indptr":[0,1,2,3,4,5,6,7,8,9,10,11,12,13,14,15,16,17,18,19,20,21,22,23,24,25,26,27,28,29,30,31,32,33,34,35,36,37,38,39,40,41,42,43,44,45,46,47,48,49,50,51,52,53,54,55,56,57,58,59,60,61,62,63,64,65,66,67,68,69,70,71,72,73,74,75,76,77,78,79,80,81,82,83,84,85,86,87,88,89,90,91,92,93,94,95,96,97,98,99,100,101,102,103,104,105,106,107,108,109,110,111,112,113,114,115,116,117,118,119,120,121,122,123,124,125,126,127,128,129,130,131,132,133,134,135,136,137,138,139,140,141,142,143,144,145,146,147,148,149,150,151,152,153,154,155,156,157,158,159,160,161,162,163,164,165,166,167,168,169,170,171,172,173,174,175,176,177,178,179,180,181,182,183,184,185,186,187,188,189,190,191,192,193,194,195,196,197,198,199,200,201,202,203,204,205,206,207,208,209,210,211,212,213,214,215,216,217,218,219,220,221,222,223,224,225,226,227,228,229,230,231,232,233,234,235,236,237,238,239,240,241,242,243,244,245,246,247,248,249,250,251,252,253,254,255,256,257,258,259,260,261,262,263,264,265,266,267,268,269,270,271,272,273,274,275,276,277,278,279,280,281,282,283,284,285,286,287,288,289,290,291,292,293,294,295,296,297,298,299,300,301,302,303,304,305,306,307,308,309,310,311,312,313,314,315,316,317,318,319,320,321,322,323,324,325,326,327,328,329,330,331,332,333,334,335,336,337,338,339,340,341,342,343,344,345,346,347,348,349,350,351,352,353,354,355,356,357,358,359,360,361,362,363,364,365,366,367,368,369,370,371,372,373,374,375,376,377,378,379,380,381,382,383,384,385,386,387,388,389,390,391,392,393,394,395,396,397,398,399,400,401,402,403,404,405,406,407,408,409,410,411,412,413,414,415,416,417,418,419,420,421,422,423,424,425,426,427,428,429,430,431,432,433,434,435,436,437,438,439,440,441,442,443,444,445,446,447,448,449,450,451,452,453,454,455,456,457,458,459,460,461,462,463,464,465,466,467,468,469,470,471,472,473,474,475,476,477,478,479,480,481,482,483,484,485,486,487,488,489,490,491,492,493,494,495,496,497,498,499,500,501,502,503,504,505,506,507,508,509,510,511,512,513,514,515,516,517,518,519,520,521,522,523,524,525,526,527,528,529,530,531,532,533,534,535,536,537,538,539,540,541,542,543,544,545,546,547,548,549,550,551,552,553,554,555,556,557,558,559,560,561,562,563,564,565,566,567,568,569,570,571,572,573,574,575,576,577,578,579,580,581,582,583,584,585,586,587,588,589,590,591,592,593,594,595,596,597,598,599,600,601,602,603,604,605,606,607,608,609,610,611,612,613,614,615,616,617,618,619,620,621,622,623,624,625,626,627,628,629,630,631,632,633,634,635,636,637,638,639,640,641,642,643,644,645,646,647,648,649,650,651,652,653,654,655,656,657,658,659,660,661,662,663,664,665,666,667,668,669,670,671,672,673,674,675,676,677,678,679,680,681,682,683,684,685,686,687,688,689,690,691,692,693,694,695,696,697,698,699,700,701,702,703,704,705,706,707,708,709,710,711,712,713,714,715,716,717,718,719,720,721,722,723,724,725,726,727,728,729,730,731,732,733,734,735,736,737,738,739,740,741,742,743,744,745,746,747,748,749,750,751,752,753,754,755,756,757,758,759,760,761,762,763,764,765,766,767,768,769,770,771,772,773,774,775,776,777,778,779,780,781,782,783,784,785,786,787,788,789,790,791,792,793,794,795,796,797,798,799,800,801,802,803,804,805,806,807,808,809,810,811,812,813,814,815,816,817,818,819,820,821,822,823,824,825,826,827,828,829,830,831,832],"tree_info":[0,0,0,0,0,0,0,0,0,0,0,0,0,0,0,0,0,0,0,0,0,0,0,0,0,0,0,0,0,0,0,0,0,0,0,0,0,0,0,0,0,0,0,0,0,0,0,0,0,0,0,0,0,0,0,0,0,0,0,0,0,0,0,0,0,0,0,0,0,0,0,0,0,0,0,0,0,0,0,0,0,0,0,0,0,0,0,0,0,0,0,0,0,0,0,0,0,0,0,0,0,0,0,0,0,0,0,0,0,0,0,0,0,0,0,0,0,0,0,0,0,0,0,0,0,0,0,0,0,0,0,0,0,0,0,0,0,0,0,0,0,0,0,0,0,0,0,0,0,0,0,0,0,0,0,0,0,0,0,0,0,0,0,0,0,0,0,0,0,0,0,0,0,0,0,0,0,0,0,0,0,0,0,0,0,0,0,0,0,0,0,0,0,0,0,0,0,0,0,0,0,0,0,0,0,0,0,0,0,0,0,0,0,0,0,0,0,0,0,0,0,0,0,0,0,0,0,0,0,0,0,0,0,0,0,0,0,0,0,0,0,0,0,0,0,0,0,0,0,0,0,0,0,0,0,0,0,0,0,0,0,0,0,0,0,0,0,0,0,0,0,0,0,0,0,0,0,0,0,0,0,0,0,0,0,0,0,0,0,0,0,0,0,0,0,0,0,0,0,0,0,0,0,0,0,0,0,0,0,0,0,0,0,0,0,0,0,0,0,0,0,0,0,0,0,0,0,0,0,0,0,0,0,0,0,0,0,0,0,0,0,0,0,0,0,0,0,0,0,0,0,0,0,0,0,0,0,0,0,0,0,0,0,0,0,0,0,0,0,0,0,0,0,0,0,0,0,0,0,0,0,0,0,0,0,0,0,0,0,0,0,0,0,0,0,0,0,0,0,0,0,0,0,0,0,0,0,0,0,0,0,0,0,0,0,0,0,0,0,0,0,0,0,0,0,0,0,0,0,0,0,0,0,0,0,0,0,0,0,0,0,0,0,0,0,0,0,0,0,0,0,0,0,0,0,0,0,0,0,0,0,0,0,0,0,0,0,0,0,0,0,0,0,0,0,0,0,0,0,0,0,0,0,0,0,0,0,0,0,0,0,0,0,0,0,0,0,0,0,0,0,0,0,0,0,0,0,0,0,0,0,0,0,0,0,0,0,0,0,0,0,0,0,0,0,0,0,0,0,0,0,0,0,0,0,0,0,0,0,0,0,0,0,0,0,0,0,0,0,0,0,0,0,0,0,0,0,0,0,0,0,0,0,0,0,0,0,0,0,0,0,0,0,0,0,0,0,0,0,0,0,0,0,0,0,0,0,0,0,0,0,0,0,0,0,0,0,0,0,0,0,0,0,0,0,0,0,0,0,0,0,0,0,0,0,0,0,0,0,0,0,0,0,0,0,0,0,0,0,0,0,0,0,0,0,0,0,0,0,0,0,0,0,0,0,0,0,0,0,0,0,0,0,0,0,0,0,0,0,0,0,0,0,0,0,0,0,0,0,0,0,0,0,0,0,0,0,0,0,0,0,0,0,0,0,0,0,0,0,0,0,0,0,0,0,0,0,0,0,0,0,0,0,0,0,0,0,0,0,0,0,0,0,0,0,0,0,0,0,0,0,0,0,0,0,0,0,0,0,0,0,0,0,0,0,0,0,0,0,0,0,0,0,0,0,0,0,0,0,0,0,0,0,0,0,0,0,0,0,0,0,0,0,0,0,0,0,0,0,0,0,0,0,0,0,0,0,0,0,0,0,0,0,0,0,0,0,0,0,0,0,0,0,0,0,0,0,0,0,0,0,0,0,0,0,0,0,0,0,0,0,0,0,0,0,0,0,0,0,0,0,0,0,0,0,0,0,0,0,0,0,0],"trees":[{"base_weights":[5.1561302E1,-4.9595905E2,3.2977072E2,-2.8528952E1,-5.9943616E2,7.839851E2,5.588351E1,-6.586184E0,6.6442213E0,-2.1063065E1,-4.5108334E2,6.326192E2,3.1652897E1,-1.492001E2,1.8667026E2,-1.3888269E1,-7.7439946E-1,4.6416445E0,7.2828094E2,-2.85241E2,-6.3773746E0,4.293477E2,2.2305355E1,1.0095259E1,2.2041832E1,-8.609956E0,-4.410015E0,2.9618027E0,-3.021343E0,6.9544997E0,1.6865873E1,3.2068021E0,-4.1747227E0],"categories":[],"categories_nodes":[],"categories_segments":[],"categories_sizes":[],"default_left":[0,0,0,0,0,0,0,0,0,0,0,0,0,0,0,0,0,0,0,0,0,0,0,0,0,0,0,0,0,0,0,0,0],"id":0,"left_children":[1,3,5,7,9,11,13,-1,-1,-1,15,17,-1,19,21,-1,-1,-1,23,25,27,29,31,-1,-1,-1,-1,-1,-1,-1,-1,-1,-1],"loss_changes":[3.9768132E7,4.23931E6,2.1477996E7,1.132346E6,1.820854E6,3.407624E6,2.951473E6,0E0,0E0,0E0,1.448644E6,2.049566E6,0E0,8.3365956E5,2.6628958E6,0E0,0E0,0E0,1.263998E6,5.621975E4,2.9919812E5,7.778115E5,7.6477256E5,0E0,0E0,0E0,0E0,0E0,0E0,0E0,0E0,0E0,0E0],"parents":[2147483647,0,0,1,1,2,2,3,3,4,4,5,5,6,6,10,10,11,11,13,13,14,14,18,18,19,19,20,20,21,21,22,22],"right_children":[2,4,6,8,10,12,14,-1,-1,-1,16,18,-1,20,22,-1,-1,-1,24,26,28,30,32,-1,-1,-1,-1,-1,-1,-1,-1,-1,-1],"split_conditions":[-5.589238E-1,-9.8479474E-1,-7.03904E-1,-6.981964E-1,-7.651978E-1,1.1591917E0,-2.3985529E-1,-6.586184E0,6.6442213E0,-2.1063065E1,9.9347544E-1,-1.1722355E0,3.1652897E1,-2.5146973E-1,2.2175466E-1,-1.3888269E1,-7.7439946E-1,4.6416445E0,-5.5109733E-1,2.3381735E-1,-2.2101207E-1,1.9897817E-1,1.1771986E0,1.0095259E1,2.2041832E1,-8.609956E0,-4.410015E0,2.9618027E0,-3.021343E0,6.9544997E0,1.6865873E1,3.2068021E0,-4.1747227E0],"split_indices":[6,1,1,5,6,7,0,0,0,0,0,4,0,2,1,0,0,0,0,4,1,6,1,0,0,0,0,0,0,0,0,0,0],"split_type":[0,0,0,0,0,0,0,0,0,0,0,0,0,0,0,0,0,0,0,0,0,0,0,0,0,0,0,0,0,0,0,0,0],"sum_hessian":[2.59E2,8.7E1,1.72E2,1.6E1,7.1E1,6.4E1,1.08E2,9E0,7E0,2.8E1,4.3E1,4.9E1,1.5E1,4.2E1,6.6E1,3.6E1,7E0,9E0,4E1,2.1E1,2.1E1,2.6E1,4E1,1.1E1,2.9E1,1.4E1,7E0,1E1,1.1E1,1.6E1,1E1,2.6E1,1.4E1],"tree_param":{"num_deleted":"0","num_feature":"8","num_nodes":"33","size_leaf_vector":"1"}},{"base_weights":[3.400391E1,-3.5141275E2,3.1762833E2,-5.981385E2,-1.9385548E2,5.720284E1,5.6359454E2,-6.5367206E2,-7.3475327E0,-3.1445764E2,1.8644849E2,-8.929301E1,5.0978976E2,1.6193637E2,7.140106E2,-1.8304409E1,-1.0869257E1,-1.4140342E1,-2.4799069E2,1.0447179E1,-1.2191225E0,-1.5547398E2,3.1536226E0,4.5394316E0,2.381341E1,-2.6348891E0,8.361679E0,3.746898E2,8.559518E2,-8.926735E0,-3.3800743E0,-1.748717E0,-6.2137647E0,1.7374966E1,3.4292498E0,2.8875158E1,1.9094446E1],"categories":[],"categories_nodes":[],"categories_segments":[],"categories_sizes":[],"default_left":[0,0,0,0,0,0,0,0,0,0,0,0,0,0,0,0,0,0,0,0,0,0,0,0,0,0,0,0,0,0,0,0,0,0,0,0,0],"id":1,"left_children":[1,3,5,7,9,11,13,15,-1,17,19,21,23,25,27,-1,-1,-1,29,-1,-1,31,-1,-1,-1,-1,-1,33,35,-1,-1,-1,-1,-1,-1,-1,-1],"loss_changes":[2.8095894E7,4.121253E6,9.448029E6,5.5777E5,3.1774825E6,4.8855745E6,4.475978E6,8.558E4,0E0,6.445105E5,8.592178E5,7.956965E5,2.2597975E6,9.397831E5,2.328282E6,0E0,0E0,0E0,4.19292E5,0E0,0E0,2.9579194E5,0E0,0E0,0E0,0E0,0E0,1.1789572E6,3.86498E5,0E0,0E0,0E0,0E0,0E0,0E0,0E0,0E0],"parents":[2147483647,0,0,1,1,2,2,3,3,4,4,5,5,6,6,7,7,9,9,10,10,11,11,12,12,13,13,14,14,18,18,21,21,27,27,28,28],"right_children":[2,4,6,8,10,12,14,16,-1,18,20,22,24,26,28,-1,-1,-1,30,-1,-1,32,-1,-1,-1,-1,-1,34,36,-1,-1,-1,-1,-1,-1,-1,-1],"split_conditions":[-4.203897E-1,-7.3690677E-1,3.688504E-2,6.63849E-1,7.0744383E-1,1.0048841E0,-6.326803E-1,7.443508E-1,-7.3475327E0,-1.3057054E0,1.9794342E-1,-3.969271E-1,1.1805845E0,5.350963E-2,2.9592645E-1,-1.8304409E1,-1.0869257E1,-1.4140342E1,1.3011894E-1,1.0447179E1,-1.2191225E0,-1.0834395E-1,3.1536226E0,4.5394316E0,2.381341E1,-2.6348891E0,8.361679E0,1.0080692E-1,-6.661458E-1,-8.926735E0,-3.3800743E0,-1.748717E0,-6.2137647E0,1.7374966E1,3.4292498E0,2.8875158E1,1.9094446E1],"split_indices":[6,5,0,4,0,3,3,0,0,3,2,0,5,6,0,0,0,0,2,0,0,2,0,0,0,0,0,0,4,0,0,0,0,0,0,0,0],"split_type":[0,0,0,0,0,0,0,0,0,0,0,0,0,0,0,0,0,0,0,0,0,0,0,0,0,0,0,0,0,0,0,0,0,0,0,0,0],"sum_hessian":[2.55E2,1.08E2,1.47E2,4.1E1,6.7E1,7.2E1,7.5E1,3.4E1,7E0,5.1E1,1.6E1,5.5E1,1.7E1,2.1E1,5.4E1,2.7E1,7E0,1E1,4.1E1,8E0,8E0,4.2E1,1.3E1,1E1,7E0,8E0,1.3E1,1.7E1,3.7E1,2.2E1,1.9E1,2.1E1,2.1E1,7E0,1E1,1E1,2.7E1],"tree_param":{"num_deleted":"0","num_feature":"8","num_nodes":"37","size_leaf_vector":"1"}},{"base_weights":[-4.240559E1,-4.3223434E2,2.302466E2,-6.229972E2,-1.7682745E2,-7.8607383E0,4.2922873E2,-6.6886334E2,-6.021182E0,-3.382181E2,2.9280518E1,-1.2709472E2,1.4229462E1,7.081678E0,5.425357E2,-2.0003931E1,-1.4422103E1,-1.0661432E1,-4.0791473E0,-6.2362943E0,1.6987946E2,-1.705765E2,4.6341724E0,-4.8955183E0,6.375146E0,3.4743506E2,7.715786E2,8.856275E0,-5.1010734E-1,-1.1008328E1,-3.2352114E0,-7.574463E-1,1.135486E1,8.236859E0,2.4199549E1],"categories":[],"categories_nodes":[],"categories_segments":[],"categories_sizes":[],"default_left":[0,0,0,0,0,0,0,0,0,0,0,0,0,0,0,0,0,0,0,0,0,0,0,0,0,0,0,0,0,0,0,0,0,0,0],"id":2,"left_children":[1,3,5,7,9,11,13,15,-1,17,19,21,-1,23,25,-1,-1,-1,-1,-1,27,29,-1,-1,-1,31,33,-1,-1,-1,-1,-1,-1,-1,-1],"loss_changes":[2.8159466E7,5.200552E6,7.3945145E6,9.64452E5,1.6065705E6,4.798543E6,4.061893E6,1.9593E5,0E0,2.7508525E5,8.6718556E5,8.2315525E5,0E0,9.157812E5,2.725918E6,0E0,0E0,0E0,0E0,0E0,4.8405397E5,5.711709E5,0E0,0E0,0E0,1.2411695E6,1.794292E6,0E0,0E0,0E0,0E0,0E0,0E0,0E0,0E0],"parents":[2147483647,0,0,1,1,2,2,3,3,4,4,5,5,6,6,7,7,9,9,10,10,11,11,13,13,14,14,20,20,21,21,25,25,26,26],"right_children":[2,4,6,8,10,12,14,16,-1,18,20,22,-1,24,26,-1,-1,-1,-1,-1,28,30,-1,-1,-1,32,34,-1,-1,-1,-1,-1,-1,-1,-1],"split_conditions":[-4.6176922E-1,-6.357151E-1,-7.1258396E-2,9.159359E-1,2.9592645E-1,1.0048841E0,-6.739242E-1,-7.5991476E-1,-6.021182E0,5.6929415E-1,-7.839888E-1,1.1805845E0,1.4229462E1,1.4515103E-1,-1.07379965E-1,-2.0003931E1,-1.4422103E1,-1.0661432E1,-4.0791473E0,-6.2362943E0,1.067699E0,-1.6472458E0,4.6341724E0,-4.8955183E0,6.375146E0,-4.7990456E-1,-3.9059064E-1,8.856275E0,-5.1010734E-1,-1.1008328E1,-3.2352114E0,-7.574463E-1,1.135486E1,8.236859E0,2.4199549E1],"split_indices":[6,7,0,0,0,3,3,6,0,2,2,5,0,4,4,0,0,0,0,0,0,0,0,0,0,7,2,0,0,0,0,0,0,0,0],"split_type":[0,0,0,0,0,0,0,0,0,0,0,0,0,0,0,0,0,0,0,0,0,0,0,0,0,0,0,0,0,0,0,0,0,0,0],"sum_hessian":[2.63E2,1.08E2,1.55E2,6.1E1,4.7E1,7.1E1,8.4E1,5.4E1,7E0,2.6E1,2.1E1,5.9E1,1.2E1,1.8E1,6.6E1,2.7E1,2.7E1,1.8E1,8E0,7E0,1.4E1,5.2E1,7E0,1E1,8E0,3.7E1,2.9E1,7E0,7E0,7E0,4.5E1,7E0,3E1,8E0,2.1E1],"tree_param":{"num_deleted":"0","num_feature":"8","num_nodes":"35","size_leaf_vector":"1"}},{"base_weights":[-2.308752E1,-4.6962628E2,2.1451163E2,-1.7667299E2,-6.0167346E2,8.6021185E2,6.1868935E1,-1.4614788E1,-3.6439453E1,-6.674668E2,-3.6668878E2,8.676616E0,1.075848E3,2.2803879E2,-1.9442528E2,-4.6148524E0,2.7848008E0,-1.2989804E1,-1.8628422E1,-1.3145841E1,-5.396074E0,3.6977787E1,2.2034306E1,-1.22861E2,3.5809525E2,-2.7882657E2,-7.5441486E-1,-5.23235E0,-7.701848E-1,6.6207776E0,1.708338E1,-1.0129269E1,-4.9015684E0,-3.8233037E0,2.7482374E0],"categories":[],"categories_nodes":[],"categories_segments":[],"categories_sizes":[],"default_left":[0,0,0,0,0,0,0,0,0,0,0,0,0,0,0,0,0,0,0,0,0,0,0,0,0,0,0,0,0,0,0,0,0,0,0],"id":3,"left_children":[1,3,5,7,9,11,13,-1,15,17,19,-1,21,23,25,-1,-1,-1,-1,-1,-1,-1,-1,27,29,31,33,-1,-1,-1,-1,-1,-1,-1,-1],"loss_changes":[2.811041E7,3.452596E6,1.6997906E7,1.582912E6,7.29254E5,3.408654E6,6.0492965E6,0E0,4.7722984E5,5.868E3,2.43934E5,0E0,6.2543E5,3.968759E6,9.1516975E5,0E0,0E0,0E0,0E0,0E0,0E0,0E0,0E0,1.6647034E5,1.787017E6,3.1328775E5,2.913217E5,0E0,0E0,0E0,0E0,0E0,0E0,0E0,0E0],"parents":[2147483647,0,0,1,1,2,2,3,3,4,4,5,5,6,6,8,8,9,9,10,10,12,12,13,13,14,14,23,23,24,24,25,25,26,26],"right_children":[2,4,6,8,10,12,14,-1,16,18,20,-1,22,24,26,-1,-1,-1,-1,-1,-1,-1,-1,28,30,32,34,-1,-1,-1,-1,-1,-1,-1,-1],"split_conditions":[-5.6778026E-1,-5.333472E-1,-8.346712E-1,-8.223513E-1,-6.357151E-1,-2.964494E-1,5.3246814E-1,-1.4614788E1,-3.969271E-1,-5.788749E-2,-7.1258396E-2,8.676616E0,-1.4638661E0,-6.507472E-1,3.955763E-1,-4.6148524E0,2.7848008E0,-1.2989804E1,-1.8628422E1,-1.3145841E1,-5.396074E0,3.6977787E1,2.2034306E1,1.4759095E-1,8.09354E-1,3.938526E-1,6.1266795E-2,-5.23235E0,-7.701848E-1,6.6207776E0,1.708338E1,-1.0129269E1,-4.9015684E0,-3.8233037E0,2.7482374E0],"split_indices":[6,1,1,5,7,6,1,0,0,1,0,0,1,0,0,0,0,0,0,0,0,0,0,3,3,3,6,0,0,0,0,0,0,0,0],"split_type":[0,0,0,0,0,0,0,0,0,0,0,0,0,0,0,0,0,0,0,0,0,0,0,0,0,0,0,0,0,0,0,0,0,0,0],"sum_hessian":[2.63E2,9.1E1,1.72E2,2.9E1,6.2E1,3.2E1,1.4E2,7E0,2.2E1,4.7E1,1.5E1,1E1,2.2E1,8.5E1,5.5E1,1.1E1,1.1E1,1.2E1,3.5E1,7E0,8E0,7E0,1.5E1,2.3E1,6.2E1,3.8E1,1.7E1,1.2E1,1.1E1,4.7E1,1.5E1,1.6E1,2.2E1,7E0,1E1],"tree_param":{"num_deleted":"0","num_feature":"8","num_nodes":"35","size_leaf_vector":"1"}},{"base_weights":[-3.1022621E1,-5.861817E2,1.8115382E2,-6.198304E2,-5.8350325E0,4.7035782E2,-9.296211E1,-1.2394773E1,-1.7260311E1,5.85515E1,6.817806E2,-3.1646732E2,3.1853634E1,-1.3974901E2,2.2245975E2,3.3828513E2,8.3022656E2,-1.8510236E2,-4.4484686E2,-9.146188E1,2.5660486E2,-6.020293E0,-1.158481E0,2.3098707E-1,9.075308E0,4.99539E0,1.3467012E1,1.0554142E1,2.3587791E1,-6.424838E0,-1.6850617E0,-1.413275E1,-6.7938275E0,-4.847568E0,5.397223E0,5.683224E-1,9.224869E0],"categories":[],"categories_nodes":[],"categories_segments":[],"categories_sizes":[],"default_left":[0,0,0,0,0,0,0,0,0,0,0,0,0,0,0,0,0,0,0,0,0,0,0,0,0,0,0,0,0,0,0,0,0,0,0,0,0],"id":4,"left_children":[1,3,5,7,-1,9,11,-1,-1,13,15,17,19,21,23,25,27,29,31,33,35,-1,-1,-1,-1,-1,-1,-1,-1,-1,-1,-1,-1,-1,-1,-1,-1],"loss_changes":[3.2381108E7,7.91532E5,1.5819536E7,8.2348E4,0E0,8.405408E6,2.8834682E6,0E0,0E0,1.1361935E6,2.982542E6,5.4164675E5,1.8803954E6,1.2742994E5,4.998513E5,4.4667725E5,9.5354E5,1.2941531E5,1.758585E5,1.2623228E6,5.305306E5,0E0,0E0,0E0,0E0,0E0,0E0,0E0,0E0,0E0,0E0,0E0,0E0,0E0,0E0,0E0,0E0],"parents":[2147483647,0,0,1,1,2,2,3,3,5,5,6,6,9,9,10,10,11,11,12,12,13,13,14,14,15,15,16,16,17,17,18,18,19,19,20,20],"right_children":[2,4,6,8,-1,10,12,-1,-1,14,16,18,20,22,24,26,28,30,32,34,36,-1,-1,-1,-1,-1,-1,-1,-1,-1,-1,-1,-1,-1,-1,-1,-1],"split_conditions":[-6.6414136E-1,-6.321121E-1,-1.3556586E-1,-5.8610046E-1,-5.8350325E0,-3.969271E-1,-1.02672964E-1,-1.2394773E1,-1.7260311E1,-1.4412574E-1,-3.4704846E-1,5.051026E-1,5.4050016E-1,-3.897656E-1,-1.8512739E-1,5.167496E-2,-7.7932787E-1,3.2472048E-2,-5.5109733E-1,2.8909418E-1,-4.3765703E-1,-6.020293E0,-1.158481E0,2.3098707E-1,9.075308E0,4.99539E0,1.3467012E1,1.0554142E1,2.3587791E1,-6.424838E0,-1.6850617E0,-1.413275E1,-6.7938275E0,-4.847568E0,5.397223E0,5.683224E-1,9.224869E0],"split_indices":[5,6,1,1,0,0,0,0,0,5,5,1,3,6,3,3,3,3,0,2,5,0,0,0,0,0,0,0,0,0,0,0,0,0,0,0,0],"split_type":[0,0,0,0,0,0,0,0,0,0,0,0,0,0,0,0,0,0,0,0,0,0,0,0,0,0,0,0,0,0,0,0,0,0,0,0,0],"sum_hessian":[2.73E2,7.5E1,1.98E2,6.8E1,7E0,9.6E1,1.02E2,1.7E1,5.1E1,3.3E1,6.3E1,3.6E1,6.6E1,1.5E1,1.8E1,2E1,4.3E1,1.9E1,1.7E1,4.3E1,2.3E1,7E0,8E0,7E0,1.1E1,1.2E1,8E0,7E0,3.6E1,1.2E1,7E0,1E1,7E0,3.3E1,1E1,7E0,1.6E1],"tree_param":{"num_deleted":"0","num_feature":"8","num_nodes":"37","size_leaf_vector":"1"}},{"base_weights":[7.2560287E0,-3.5759232E2,3.059422E2,-5.661762E2,-1.720336E2,1.5034256E2,5.6914264E2,-1.9738857E1,-4.8140454E2,-3.1970587E2,2.7400185E1,4.7297245E1,5.3439764E2,2.0805937E-1,6.508192E2,-1.3885997E1,-3.694021E2,-1.0990926E1,-2.7912314E2,1.5483017E2,-3.7036564E0,-7.460435E1,2.4743446E2,4.6151805E0,2.4963371E1,7.6547845E2,7.421592E0,-1.1705064E1,-6.1904187E0,-8.876882E0,-4.5868435E0,9.349357E-1,7.4523664E0,-8.927229E0,3.593214E-1,3.8960965E0,1.2788186E1,1.2854473E1,2.6546492E1],"categories":[],"categories_nodes":[],"categories_segments":[],"categories_sizes":[],"default_left":[0,0,0,0,0,0,0,0,0,0,0,0,0,0,0,0,0,0,0,0,0,0,0,0,0,0,0,0,0,0,0,0,0,0,0,0,0,0,0],"id":5,"left_children":[1,3,5,7,9,11,13,-1,15,17,19,21,23,-1,25,-1,27,-1,29,31,-1,33,35,-1,-1,37,-1,-1,-1,-1,-1,-1,-1,-1,-1,-1,-1,-1,-1],"loss_changes":[2.9532694E7,4.624555E6,6.016563E6,5.41606E5,1.9525154E6,3.7343565E6,2.515872E6,0E0,3.2583E4,3.6753E4,6.454838E5,1.872635E6,2.8294775E6,0E0,1.80622E6,0E0,5.916725E4,0E0,1.2694575E5,2.5232628E5,0E0,1.1327144E6,6.1644725E5,0E0,0E0,1.953764E6,0E0,0E0,0E0,0E0,0E0,0E0,0E0,0E0,0E0,0E0,0E0,0E0,0E0],"parents":[2147483647,0,0,1,1,2,2,3,3,4,4,5,5,6,6,8,8,9,9,10,10,11,11,12,12,14,14,16,16,18,18,19,19,21,21,22,22,25,25],"right_children":[2,4,6,8,10,12,14,-1,16,18,20,22,24,-1,26,-1,28,-1,30,32,-1,34,36,-1,-1,38,-1,-1,-1,-1,-1,-1,-1,-1,-1,-1,-1,-1,-1],"split_conditions":[-3.7227708E-1,-6.8589056E-1,6.28352E-1,-7.775465E-1,1.4645167E-1,1.0048841E0,-9.7204465E-1,-1.9738857E1,1.0081787E-1,-1.0347375E0,1.3185108E-1,3.688504E-2,6.329809E-1,2.0805937E-1,8.4118164E-1,-1.3885997E1,-7.811625E-1,-1.0990926E1,-5.101492E-1,1.686526E-1,-3.7036564E0,-1.7336047E-1,3.2052884E-1,4.6151805E0,2.4963371E1,1.1819419E-1,7.421592E0,-1.1705064E1,-6.1904187E0,-8.876882E0,-4.5868435E0,9.349357E-1,7.4523664E0,-8.927229E0,3.593214E-1,3.8960965E0,1.2788186E1,1.2854473E1,2.6546492E1],"split_indices":[6,6,0,7,0,3,4,0,4,2,4,0,7,0,4,0,6,0,6,3,0,6,3,0,0,5,0,0,0,0,0,0,0,0,0,0,0,0,0],"split_type":[0,0,0,0,0,0,0,0,0,0,0,0,0,0,0,0,0,0,0,0,0,0,0,0,0,0,0,0,0,0,0,0,0,0,0,0,0,0,0],"sum_hessian":[2.69E2,1.21E2,1.48E2,5.6E1,6.5E1,9.4E1,5.4E1,1.5E1,4.1E1,3.7E1,2.8E1,7.5E1,1.9E1,7E0,4.7E1,2.6E1,1.5E1,8E0,2.9E1,1.6E1,1.2E1,4.7E1,2.8E1,1.1E1,8E0,3.5E1,1.2E1,8E0,7E0,1.7E1,1.2E1,9E0,7E0,1.1E1,3.6E1,2.1E1,7E0,1.8E1,1.7E1],"tree_param":{"num_deleted":"0","num_feature":"8","num_nodes":"39","size_leaf_vector":"1"}},{"base_weights":[-4.732149E1,-4.4066745E2,1.912042E2,-2.2122854E1,-5.3181946E2,5.5841113E2,-5.3094776E1,-9.380707E0,4.880932E0,-1.7762104E1,-4.430557E2,2.167461E2,8.092412E2,-9.5954185E1,9.641284E0,-3.421426E2,-5.28691E2,-1.8194267E0,3.031093E2,4.385202E2,9.919941E2,-2.9070554E2,-3.4951042E1,-1.0181347E1,-4.499557E0,-1.5454241E1,-9.265498E0,5.5693583E0,1.19918995E1,5.24897E0,1.62955E1,1.3828213E1,3.0631132E1,-4.4704604E0,-1.0643708E1,-4.766628E0,1.22476E0],"categories":[],"categories_nodes":[],"categories_segments":[],"categories_sizes":[],"default_left":[0,0,0,0,0,0,0,0,0,0,0,0,0,0,0,0,0,0,0,0,0,0,0,0,0,0,0,0,0,0,0,0,0,0,0,0,0],"id":6,"left_children":[1,3,5,7,9,11,13,-1,-1,-1,15,17,19,21,-1,23,25,-1,27,29,31,33,35,-1,-1,-1,-1,-1,-1,-1,-1,-1,-1,-1,-1,-1,-1],"loss_changes":[2.635473E7,4.032258E6,1.5728598E7,1.466645E6,8.2757E5,5.82359E6,1.9481581E6,0E0,0E0,0E0,3.11689E5,7.8723275E5,2.275002E6,1.1422428E6,0E0,1.626895E5,1.01701E5,0E0,2.386305E5,5.306405E5,1.519746E6,2.4973275E5,9.0894075E5,0E0,0E0,0E0,0E0,0E0,0E0,0E0,0E0,0E0,0E0,0E0,0E0,0E0,0E0],"parents":[2147483647,0,0,1,1,2,2,3,3,4,4,5,5,6,6,10,10,11,11,12,12,13,13,15,15,16,16,18,18,19,19,20,20,21,21,22,22],"right_children":[2,4,6,8,10,12,14,-1,-1,-1,16,18,20,22,-1,24,26,-1,28,30,32,34,36,-1,-1,-1,-1,-1,-1,-1,-1,-1,-1,-1,-1,-1,-1],"split_conditions":[-5.421491E-1,-8.346712E-1,-3.3752963E-1,-7.7685034E-1,-7.850619E-1,-1.6796933E-1,1.6910244E0,-9.380707E0,4.880932E0,-1.7762104E1,4.9362895E-1,-1.5562403E-1,-1.9007018E-1,-8.087217E-1,9.641284E0,3.1805035E-1,-5.83087E-1,-1.8194267E0,2.3329759E-1,-5.9805363E-2,-4.632317E-1,6.095178E-1,-2.0707627E-1,-1.0181347E1,-4.499557E0,-1.5454241E1,-9.265498E0,5.5693583E0,1.19918995E1,5.24897E0,1.62955E1,1.3828213E1,3.0631132E1,-4.4704604E0,-1.0643708E1,-4.766628E0,1.22476E0],"split_indices":[6,1,1,6,6,0,0,0,0,0,1,6,2,0,0,4,7,0,7,5,5,1,6,0,0,0,0,0,0,0,0,0,0,0,0,0,0],"split_type":[0,0,0,0,0,0,0,0,0,0,0,0,0,0,0,0,0,0,0,0,0,0,0,0,0,0,0,0,0,0,0,0,0,0,0,0,0],"sum_hessian":[2.79E2,1.05E2,1.74E2,1.9E1,8.6E1,6.9E1,1.05E2,7E0,1.2E1,3E1,5.6E1,3E1,3.9E1,9.6E1,9E0,2.8E1,2.8E1,7E0,2.3E1,1.4E1,2.5E1,2.2E1,7.4E1,2.1E1,7E0,1.9E1,9E0,1.6E1,7E0,7E0,7E0,8E0,1.7E1,1.2E1,1E1,2.6E1,4.8E1],"tree_param":{"num_deleted":"0","num_feature":"8","num_nodes":"37","size_leaf_vector":"1"}},{"base_weights":[-2.1225437E1,-3.4715527E2,2.3833249E2,-5.799216E2,-2.1870625E2,6.417945E2,2.3745943E1,-9.559149E0,-1.607474E1,8.92782E1,-3.21137E2,4.936093E0,7.477883E2,1.5817813E2,-2.0843578E2,-1.8116617E0,4.7138286E0,-3.8059143E2,-2.806175E0,2.9058926E1,5.7837427E2,6.2247482E1,1.4482245E1,-2.7857236E2,-6.212553E-1,-6.030574E0,-1.3170406E1,7.9464526E0,2.2825586E1,-1.7548896E-1,8.216227E0,-8.790616E0,-3.505721E0],"categories":[],"categories_nodes":[],"categories_segments":[],"categories_sizes":[],"default_left":[0,0,0,0,0,0,0,0,0,0,0,0,0,0,0,0,0,0,0,0,0,0,0,0,0,0,0,0,0,0,0,0,0],"id":7,"left_children":[1,3,5,7,9,11,13,-1,-1,15,17,-1,19,21,23,-1,-1,25,-1,-1,27,29,-1,31,-1,-1,-1,-1,-1,-1,-1,-1,-1],"loss_changes":[2.2331928E7,3.371304E6,1.2711656E7,7.2138E4,2.4577955E6,2.310138E6,3.0606015E6,0E0,0E0,2.995589E5,6.973325E5,0E0,1.8676E6,2.312105E6,4.5981338E5,0E0,0E0,7.105395E5,0E0,0E0,2.151875E6,8.857793E5,0E0,1.6935262E5,0E0,0E0,0E0,0E0,0E0,0E0,0E0,0E0,0E0],"parents":[2147483647,0,0,1,1,2,2,3,3,4,4,5,5,6,6,9,9,10,10,12,12,13,13,14,14,17,17,20,20,21,21,23,23],"right_children":[2,4,6,8,10,12,14,-1,-1,16,18,-1,20,22,24,-1,-1,26,-1,-1,28,30,-1,32,-1,-1,-1,-1,-1,-1,-1,-1,-1],"split_conditions":[-4.05735E-1,-7.0030874E-1,-6.0940397E-1,-7.839888E-1,-9.8479474E-1,-1.0694858E0,8.0434245E-1,-9.559149E0,-1.607474E1,-4.660383E-1,6.4805716E-1,4.936093E0,-1.3861877E0,9.993526E-1,1.2170984E0,-1.8116617E0,4.7138286E0,1.4407629E-1,-2.806175E0,2.9058926E1,2.9602322E-1,1.1805845E0,1.4482245E1,3.5087234E-1,-6.212553E-1,-6.030574E0,-1.3170406E1,7.9464526E0,2.2825586E1,-1.7548896E-1,8.216227E0,-8.790616E0,-3.505721E0],"split_indices":[6,7,1,2,1,3,1,0,0,2,2,0,1,3,5,0,0,1,0,0,5,5,0,2,0,0,0,0,0,0,0,0,0],"split_type":[0,0,0,0,0,0,0,0,0,0,0,0,0,0,0,0,0,0,0,0,0,0,0,0,0,0,0,0,0,0,0,0,0],"sum_hessian":[2.62E2,1.16E2,1.46E2,4E1,7.6E1,5E1,9.6E1,7E0,3.3E1,1.9E1,5.7E1,1E1,4E1,6.1E1,3.5E1,7E0,1.2E1,4.4E1,1.3E1,1.1E1,2.9E1,5E1,1.1E1,2.5E1,1E1,2.1E1,2.3E1,1.6E1,1.3E1,4E1,1E1,1.7E1,8E0],"tree_param":{"num_deleted":"0","num_feature":"8","num_nodes":"33","size_leaf_vector":"1"}},{"base_weights":[4.707529E1,4.900878E2,-1.7466872E2,-8.523345E1,6.555722E2,-5.1162238E2,9.528386E0,-1.0501317E1,7.786359E1,3.396704E2,7.532009E2,-5.565569E2,-2.4580805E0,8.693504E1,-2.727933E2,5.1894164E0,-1.7576312E0,-1.834696E-3,1.6183956E1,4.7944305E2,8.5501654E2,-5.936379E2,-5.959009E0,-1.4923232E2,1.6969273E2,-8.589749E0,-2.4695694E0,1.6693325E1,7.5888147E0,1.3083126E1,2.5809326E1,-1.7508913E1,-1.26268E1,-2.1223102E0,-6.737597E0,1.8350385E0,9.700165E0],"categories":[],"categories_nodes":[],"categories_segments":[],"categories_sizes":[],"default_left":[0,0,0,0,0,0,0,0,0,0,0,0,0,0,0,0,0,0,0,0,0,0,0,0,0,0,0,0,0,0,0,0,0,0,0,0,0],"id":8,"left_children":[1,3,5,7,9,11,13,-1,15,17,19,21,-1,23,25,-1,-1,-1,-1,27,29,31,-1,33,35,-1,-1,-1,-1,-1,-1,-1,-1,-1,-1,-1,-1],"loss_changes":[2.9163272E7,9.481344E6,1.229392E7,1.2148691E6,2.11892E6,1.261982E6,2.8428268E6,0E0,2.9200444E5,1.8888355E6,1.206696E6,6.33894E5,0E0,2.0188795E6,2.441955E5,0E0,0E0,0E0,0E0,3.5412225E5,1.403736E6,1.44668E5,0E0,1.779695E5,1.4927355E6,0E0,0E0,0E0,0E0,0E0,0E0,0E0,0E0,0E0,0E0,0E0,0E0],"parents":[2147483647,0,0,1,1,2,2,3,3,4,4,5,5,6,6,8,8,9,9,10,10,11,11,13,13,14,14,19,19,20,20,21,21,23,23,24,24],"right_children":[2,4,6,8,10,12,14,-1,16,18,20,22,-1,24,26,-1,-1,-1,-1,28,30,32,-1,34,36,-1,-1,-1,-1,-1,-1,-1,-1,-1,-1,-1,-1],"split_conditions":[-5.9386826E-1,-6.5725476E-1,-5.459437E-1,-8.291624E-1,-4.0223694E-1,9.159359E-1,1.2005022E0,-1.0501317E1,-6.100506E-1,1.810996E-1,-5.603917E-1,-3.8849506E-1,-2.4580805E0,-8.00222E-1,1.1843687E0,5.1894164E0,-1.7576312E0,-1.834696E-3,1.6183956E1,-1.3956478E0,-3.4704846E-1,-7.0030874E-1,-5.959009E0,2.755872E-2,2.9075292E-1,-8.589749E0,-2.4695694E0,1.6693325E1,7.5888147E0,1.3083126E1,2.5809326E1,-1.7508913E1,-1.26268E1,-2.1223102E0,-6.737597E0,1.8350385E0,9.700165E0],"split_indices":[1,5,6,5,0,0,1,0,7,3,3,7,0,0,7,0,0,0,0,1,5,7,0,1,6,0,0,0,0,0,0,0,0,0,0,0,0],"split_type":[0,0,0,0,0,0,0,0,0,0,0,0,0,0,0,0,0,0,0,0,0,0,0,0,0,0,0,0,0,0,0,0,0,0,0,0,0],"sum_hessian":[2.95E2,9.8E1,1.97E2,2.2E1,7.6E1,6.9E1,1.28E2,7E0,1.5E1,1.9E1,5.7E1,6.2E1,7E0,1.01E2,2.7E1,8E0,7E0,9E0,1E1,1.7E1,4E1,5.5E1,7E0,2.6E1,7.5E1,2E1,7E0,8E0,9E0,1.2E1,2.8E1,3E1,2.5E1,1.7E1,9E0,5.1E1,2.4E1],"tree_param":{"num_deleted":"0","num_feature":"8","num_nodes":"37","size_leaf_vector":"1"}},{"base_weights":[4.2721716E-1,-3.9347058E2,2.2100755E2,-2.4714732E2,-5.535067E2,4.941848E2,-5.468117E1,-1.3118896E1,-1.6073384E2,-6.145666E2,-9.20326E0,1.4616275E2,6.4583124E2,-1.5472615E2,1.6522685E2,-2.7277087E2,1.3481427E1,-1.7224268E1,-1.1075553E1,-3.9708438E0,3.4771066E2,2.8508062E1,4.9097742E2,-5.2131035E1,-2.590034E2,-5.7577246E-1,3.0700073E2,-3.2355475E0,-9.539456E0,-2.0823922E0,2.266437E0,1.8929251E0,1.397425E1,7.0652704E0,1.4874605E1,-3.0832393E0,1.0621779E0,-9.231926E0,-3.332457E0,1.1243076E1,4.3070045E0],"categories":[],"categories_nodes":[],"categories_segments":[],"categories_sizes":[],"default_left":[0,0,0,0,0,0,0,0,0,0,0,0,0,0,0,0,0,0,0,0,0,0,0,0,0,0,0,0,0,0,0,0,0,0,0,0,0,0,0,0,0],"id":9,"left_children":[1,3,5,7,9,11,13,-1,15,17,-1,19,21,23,25,27,29,-1,-1,-1,31,-1,33,35,37,-1,39,-1,-1,-1,-1,-1,-1,-1,-1,-1,-1,-1,-1,-1,-1],"loss_changes":[2.3719982E7,2.15807E6,1.3206603E7,1.0806415E6,3.52277E5,4.54992E6,1.961626E6,0E0,8.0393825E5,1.252E3,0E0,1.7327525E6,3.64244E6,6.390964E5,7.498707E5,2.957745E5,1.2225396E5,0E0,0E0,0E0,8.306506E5,0E0,6.44817E5,1.9911505E5,3.24262E5,0E0,2.0806525E5,0E0,0E0,0E0,0E0,0E0,0E0,0E0,0E0,0E0,0E0,0E0,0E0,0E0,0E0],"parents":[2147483647,0,0,1,1,2,2,3,3,4,4,5,5,6,6,8,8,9,9,11,11,12,12,13,13,14,14,15,15,16,16,20,20,22,22,23,23,24,24,26,26],"right_children":[2,4,6,8,10,12,14,-1,16,18,-1,20,22,24,26,28,30,-1,-1,-1,32,-1,34,36,38,-1,40,-1,-1,-1,-1,-1,-1,-1,-1,-1,-1,-1,-1,-1,-1],"split_conditions":[-5.090076E-1,1.7514762E-1,-1.9711457E-1,-8.2095826E-1,-6.1911374E-1,-7.052396E-1,6.8714774E-1,-1.3118896E1,3.4575137E-1,-6.9944954E-1,-9.20326E0,-3.8125426E-2,-1.2230631E0,7.888068E-1,2.598655E-1,-8.744763E-1,-1.07379965E-1,-1.7224268E1,-1.1075553E1,-3.9708438E0,5.893827E-1,2.8508062E1,-6.0823905E-1,1.6986275E-1,1.0065582E-1,-5.7577246E-1,3.8487923E-1,-3.2355475E0,-9.539456E0,-2.0823922E0,2.266437E0,1.8929251E0,1.397425E1,7.0652704E0,1.4874605E1,-3.0832393E0,1.0621779E0,-9.231926E0,-3.332457E0,1.1243076E1,4.3070045E0],"split_indices":[7,1,1,6,7,0,3,0,0,6,0,7,1,1,6,1,4,0,0,0,3,0,3,2,2,0,1,0,0,0,0,0,0,0,0,0,0,0,0,0,0],"split_type":[0,0,0,0,0,0,0,0,0,0,0,0,0,0,0,0,0,0,0,0,0,0,0,0,0,0,0,0,0,0,0,0,0,0,0,0,0,0,0,0,0],"sum_hessian":[2.71E2,9.7E1,1.74E2,5.2E1,4.5E1,8.7E1,8.7E1,1.2E1,4E1,3.3E1,1.2E1,2.7E1,6E1,6E1,2.7E1,2.4E1,1.6E1,2.5E1,8E0,1.1E1,1.6E1,1.4E1,4.6E1,3.1E1,2.9E1,1.2E1,1.5E1,1E1,1.4E1,7E0,9E0,7E0,9E0,1.3E1,3.3E1,1.8E1,1.3E1,1.6E1,1.3E1,7E0,8E0],"tree_param":{"num_deleted":"0","num_feature":"8","num_nodes":"41","size_leaf_vector":"1"}},{"base_weights":[-2.7524492E1,-5.515229E2,9.856899E1,-1.5488557E1,-8.005358E0,4.3148532E2,-8.0853516E1,2.1353119E2,7.3676855E2,-2.5074012E0,-2.5613986E2,-6.745264E1,3.469054E2,2.8313456E1,4.4754486E2,-2.3798642E2,6.3460155E1,-1.130558E1,-1.8000862E2,-6.5024166E0,3.1884727E0,4.584837E0,1.3910916E1,6.43878E0,1.4506649E1,-8.346621E0,-2.4941354E0,-1.8582932E0,4.9607334E0,-5.760987E0,-1.9475987E0],"categories":[],"categories_nodes":[],"categories_segments":[],"categories_sizes":[],"default_left":[0,0,0,0,0,0,0,0,0,0,0,0,0,0,0,0,0,0,0,0,0,0,0,0,0,0,0,0,0,0,0],"id":10,"left_children":[1,3,5,-1,-1,7,9,11,13,15,17,19,21,-1,23,25,27,-1,29,-1,-1,-1,-1,-1,-1,-1,-1,-1,-1,-1,-1],"loss_changes":[1.703507E7,3.063E5,1.2459286E7,0E0,0E0,4.699932E6,1.8670462E6,1.6723434E6,2.499361E6,1.4908304E6,4.82944E5,5.428731E5,8.56115E5,0E0,2.4933875E5,2.1124712E5,1.2819269E6,0E0,1.14224E5,0E0,0E0,0E0,0E0,0E0,0E0,0E0,0E0,0E0,0E0,0E0,0E0],"parents":[2147483647,0,0,1,1,2,2,5,5,6,6,7,7,8,8,9,9,10,10,11,11,12,12,14,14,15,15,16,16,18,18],"right_children":[2,4,6,-1,-1,8,10,12,14,16,18,20,22,-1,24,26,28,-1,30,-1,-1,-1,-1,-1,-1,-1,-1,-1,-1,-1,-1],"split_conditions":[-6.6583353E-1,-6.9080985E-1,-5.006542E-1,-1.5488557E1,-8.005358E0,1.810996E-1,1.0218419E0,-3.517976E-1,-9.8479474E-1,-5.22357E-1,-3.411379E-1,-1.4148006E0,-1.5562403E-1,2.8313456E1,-4.5563206E-1,1.0081787E-1,-1.02672964E-1,-1.130558E1,9.0711904E-1,-6.5024166E0,3.1884727E0,4.584837E0,1.3910916E1,6.43878E0,1.4506649E1,-8.346621E0,-2.4941354E0,-1.8582932E0,4.9607334E0,-5.760987E0,-1.9475987E0],"split_indices":[6,5,1,0,0,3,1,0,1,5,6,3,6,0,6,4,0,0,3,0,0,0,0,0,0,0,0,0,0,0,0],"split_type":[0,0,0,0,0,0,0,0,0,0,0,0,0,0,0,0,0,0,0,0,0,0,0,0,0,0,0,0,0,0,0],"sum_hessian":[2.56E2,4.9E1,2.07E2,4.1E1,8E0,7.2E1,1.35E2,4.3E1,2.9E1,9.4E1,4.1E1,1.4E1,2.9E1,1.2E1,1.7E1,2E1,7.4E1,1.1E1,3E1,7E0,7E0,1.6E1,1.3E1,7E0,1E1,1.2E1,8E0,3.6E1,3.8E1,2.1E1,9E0],"tree_param":{"num_deleted":"0","num_feature":"8","num_nodes":"31","size_leaf_vector":"1"}},{"base_weights":[2.474278E1,-3.629017E2,2.3791553E2,3.3617863E1,-4.6516507E2,5.238806E2,-3.7636417E1,-5.5348883E0,4.7612796E0,-1.6067677E1,-3.4417545E2,4.284315E2,2.6330536E1,-1.2233427E2,1.8979268E2,-3.8863318E2,-2.6489215E0,2.9327518E2,6.140622E2,5.4184418E1,-1.774764E2,8.505078E0,-8.222538E-1,-4.534247E0,-1.1635266E1,1.5357977E1,5.7659225E0,6.7223487E0,2.1441288E1,-2.016455E0,5.108061E0,-6.205499E0,-1.0550085E0],"categories":[],"categories_nodes":[],"categories_segments":[],"categories_sizes":[],"default_left":[0,0,0,0,0,0,0,0,0,0,0,0,0,0,0,0,0,0,0,0,0,0,0,0,0,0,0,0,0,0,0,0,0],"id":11,"left_children":[1,3,5,7,9,11,13,-1,-1,-1,15,17,-1,19,21,23,-1,25,27,29,31,-1,-1,-1,-1,-1,-1,-1,-1,-1,-1,-1,-1],"loss_changes":[2.1654136E7,3.786733E6,1.3336621E7,7.6359606E5,1.114417E6,3.380098E6,1.6990778E6,0E0,0E0,0E0,4.25407E5,1.601241E6,0E0,6.32568E5,7.257043E5,3.53254E5,0E0,7.93093E5,1.907431E6,3.103521E5,3.895065E5,0E0,0E0,0E0,0E0,0E0,0E0,0E0,0E0,0E0,0E0,0E0,0E0],"parents":[2147483647,0,0,1,1,2,2,3,3,4,4,5,5,6,6,10,10,11,11,13,13,14,14,15,15,17,17,18,18,19,19,20,20],"right_children":[2,4,6,8,10,12,14,-1,-1,-1,16,18,-1,20,22,24,-1,26,28,30,32,-1,-1,-1,-1,-1,-1,-1,-1,-1,-1,-1,-1],"split_conditions":[-4.7730437E-1,-9.8479474E-1,-1.821729E-1,-7.964323E-1,-7.5991476E-1,1.0714993E0,6.8714774E-1,-5.5348883E0,4.7612796E0,-1.6067677E1,-4.0314114E-1,5.536302E-1,2.6330536E1,2.4505816E-1,8.641481E-1,-3.0435282E-1,-2.6489215E0,-1.4327947E0,2.72337E-2,1.5184411E-1,8.455076E-1,8.505078E0,-8.222538E-1,-4.534247E0,-1.1635266E1,1.5357977E1,5.7659225E0,6.7223487E0,2.1441288E1,-2.016455E0,5.108061E0,-6.205499E0,-1.0550085E0],"split_indices":[6,1,1,5,6,7,3,0,0,0,7,2,0,1,1,1,0,1,3,1,2,0,0,0,0,0,0,0,0,0,0,0,0],"split_type":[0,0,0,0,0,0,0,0,0,0,0,0,0,0,0,0,0,0,0,0,0,0,0,0,0,0,0,0,0,0,0,0,0],"sum_hessian":[2.6E2,9.2E1,1.68E2,1.9E1,7.3E1,8.2E1,8.6E1,7E0,1.2E1,3.1E1,4.2E1,7E1,1.2E1,6.3E1,2.3E1,3.5E1,7E0,4.2E1,2.8E1,1.5E1,4.8E1,1.4E1,9E0,8E0,2.7E1,7E0,3.5E1,1.1E1,1.7E1,8E0,7E0,3.3E1,1.5E1],"tree_param":{"num_deleted":"0","num_feature":"8","num_nodes":"33","size_leaf_vector":"1"}},{"base_weights":[-7.805904E0,3.9858804E2,-1.6391882E2,-3.567162E1,7.178378E2,-4.3801617E2,-2.2610409E1,-1.1705698E1,1.07992386E2,1.0515132E3,5.159497E2,-5.4905255E2,-2.8419568E2,1.280376E2,-1.729259E2,-3.6774719E0,2.068727E2,1.6607113E1,3.4220196E1,3.392502E2,2.18903E1,-1.6257864E1,-4.4122354E2,-1.0428598E1,-1.3627327E2,1.8859316E1,3.5546222E2,-2.264253E2,5.317841E0,1.9055567E0,7.803779E0,5.661236E0,1.256424E1,-7.7550483E0,-1.3135231E1,-6.2102704E0,-4.848271E-1,-7.984332E-1,6.895377E0,5.993198E0,1.4376381E1,-1.0231893E1,-4.272579E0],"categories":[],"categories_nodes":[],"categories_segments":[],"categories_sizes":[],"default_left":[0,0,0,0,0,0,0,0,0,0,0,0,0,0,0,0,0,0,0,0,0,0,0,0,0,0,0,0,0,0,0,0,0,0,0,0,0,0,0,0,0,0,0],"id":12,"left_children":[1,3,5,7,9,11,13,-1,15,17,19,21,23,25,27,-1,29,-1,-1,31,-1,-1,33,-1,35,37,39,41,-1,-1,-1,-1,-1,-1,-1,-1,-1,-1,-1,-1,-1,-1,-1],"loss_changes":[1.7829474E7,1.0839318E7,7.852746E6,2.0561265E6,2.4889E6,1.022458E6,3.0791795E6,0E0,6.674879E5,8.73018E5,1.410109E6,2.6557E4,4.67615E5,1.6817246E6,1.4133764E6,0E0,2.1016094E5,0E0,0E0,2.5924525E5,0E0,0E0,1.74255E4,0E0,1.7357044E5,5.7443194E5,4.1318975E5,5.600995E5,0E0,0E0,0E0,0E0,0E0,0E0,0E0,0E0,0E0,0E0,0E0,0E0,0E0,0E0,0E0],"parents":[2147483647,0,0,1,1,2,2,3,3,4,4,5,5,6,6,8,8,9,9,10,10,11,11,12,12,13,13,14,14,16,16,19,19,22,22,24,24,25,25,26,26,27,27],"right_children":[2,4,6,8,10,12,14,-1,16,18,20,22,24,26,28,-1,30,-1,-1,32,-1,-1,34,-1,36,38,40,42,-1,-1,-1,-1,-1,-1,-1,-1,-1,-1,-1,-1,-1,-1,-1],"split_conditions":[-6.297177E-1,-3.6572978E-1,-5.759006E-1,-8.1181943E-1,-1.2774379E0,-6.491629E-1,5.3246814E-1,-1.1705698E1,-1.2681531E0,-6.571216E-1,5.518792E-1,-8.1181943E-1,3.1272098E-1,5.94876E-1,1.2492967E0,-3.6774719E0,-6.5725476E-1,1.6607113E1,3.4220196E1,7.663501E-2,2.18903E1,-1.6257864E1,-1.2779802E-1,-1.0428598E1,1.8367056E-2,6.1382395E-1,5.249164E-1,-8.087217E-1,5.317841E0,1.9055567E0,7.803779E0,5.661236E0,1.256424E1,-7.7550483E0,-1.3135231E1,-6.2102704E0,-4.848271E-1,-7.984332E-1,6.895377E0,5.993198E0,1.4376381E1,-1.0231893E1,-4.272579E0],"split_indices":[1,5,5,5,1,7,1,0,3,3,7,5,2,0,3,0,5,0,0,2,0,0,1,0,4,3,3,0,0,0,0,0,0,0,0,0,0,0,0,0,0,0,0],"split_type":[0,0,0,0,0,0,0,0,0,0,0,0,0,0,0,0,0,0,0,0,0,0,0,0,0,0,0,0,0,0,0,0,0,0,0,0,0,0,0,0,0,0,0],"sum_hessian":[2.79E2,7.7E1,2.02E2,3.3E1,4.4E1,6.8E1,1.34E2,8E0,2.5E1,1.5E1,2.9E1,3.8E1,3E1,6.7E1,6.7E1,7E0,1.8E1,7E0,8E0,2E1,9E0,2E1,1.8E1,1.6E1,1.4E1,4.6E1,2.1E1,5.9E1,8E0,8E0,1E1,1.2E1,8E0,7E0,1.1E1,7E0,7E0,3.9E1,7E0,1.4E1,7E0,1.5E1,4.4E1],"tree_param":{"num_deleted":"0","num_feature":"8","num_nodes":"43","size_leaf_vector":"1"}},{"base_weights":[4.265893E1,-3.0096378E2,2.4302444E2,-5.6186253E1,-4.3566846E2,4.724113E2,-9.317089E1,-8.401548E0,8.357587E1,-4.741169E2,-2.6846879E0,3.1781863E2,6.893716E2,-1.5134543E2,1.0058451E1,-6.1540775E1,9.128968E0,-1.736076E1,-4.210551E2,-1.8707642E1,4.3527795E2,4.660044E2,3.167783E1,-3.176691E1,-2.627141E2,1.5500147E0,-4.5959053E0,-1.1764806E1,-6.5533214E0,-5.7912765E0,3.7996993E0,2.0652508E1,8.263115E0,1.4686383E1,6.3738885E0,-3.1763487E0,5.5107017E0,-8.401852E0,-2.5521026E0],"categories":[],"categories_nodes":[],"categories_segments":[],"categories_sizes":[],"default_left":[0,0,0,0,0,0,0,0,0,0,0,0,0,0,0,0,0,0,0,0,0,0,0,0,0,0,0,0,0,0,0,0,0,0,0,0,0,0,0],"id":13,"left_children":[1,3,5,7,9,11,13,-1,15,17,-1,19,21,23,-1,25,-1,-1,27,29,31,33,-1,35,37,-1,-1,-1,-1,-1,-1,-1,-1,-1,-1,-1,-1,-1,-1],"loss_changes":[1.886923E7,3.305762E6,1.3385565E7,1.3943278E6,7.84164E5,3.235572E6,2.0284701E6,0E0,9.821964E5,3.00968E5,0E0,2.4588885E6,4.311062E6,8.4396175E5,0E0,2.4399228E5,0E0,0E0,1.16961E5,5.951303E5,1.698245E6,5.161245E5,0E0,7.184615E5,2.84828E5,0E0,0E0,0E0,0E0,0E0,0E0,0E0,0E0,0E0,0E0,0E0,0E0,0E0,0E0],"parents":[2147483647,0,0,1,1,2,2,3,3,4,4,5,5,6,6,8,8,9,9,11,11,12,12,13,13,15,15,18,18,19,19,20,20,21,21,23,23,24,24],"right_children":[2,4,6,8,10,12,14,-1,16,18,-1,20,22,24,-1,26,-1,-1,28,30,32,34,-1,36,38,-1,-1,-1,-1,-1,-1,-1,-1,-1,-1,-1,-1,-1,-1],"split_conditions":[-5.383457E-1,-5.333472E-1,2.0621897E-1,-7.623131E-1,1.1013844E0,3.3796358E-1,1.0328318E0,-8.401548E0,6.28352E-1,-8.371816E-1,-2.6846879E0,-4.0223694E-1,9.159359E-1,9.0532434E-1,1.0058451E1,-1.2094558E0,9.128968E0,-1.736076E1,1.3241708E0,-2.1648822E-2,-1.1609204E0,-4.89901E-1,3.167783E1,6.8714774E-1,1.138968E0,1.5500147E0,-4.5959053E0,-1.1764806E1,-6.5533214E0,-5.7912765E0,3.7996993E0,2.0652508E1,8.263115E0,1.4686383E1,6.3738885E0,-3.1763487E0,5.5107017E0,-8.401852E0,-2.5521026E0],"split_indices":[6,1,1,5,0,7,0,0,0,6,0,0,0,1,0,1,0,0,3,3,1,1,0,3,5,0,0,0,0,0,0,0,0,0,0,0,0,0,0],"split_type":[0,0,0,0,0,0,0,0,0,0,0,0,0,0,0,0,0,0,0,0,0,0,0,0,0,0,0,0,0,0,0,0,0,0,0,0,0,0,0],"sum_hessian":[2.72E2,1E2,1.72E2,3.6E1,6.4E1,1.02E2,7E1,1.2E1,2.4E1,5.7E1,7E0,6.1E1,4.1E1,6.3E1,7E0,1.6E1,8E0,1E1,4.7E1,1.6E1,4.5E1,3E1,1.1E1,3.1E1,3.2E1,8E0,8E0,3.9E1,8E0,7E0,9E0,1E1,3.5E1,2E1,1E1,2.3E1,8E0,2.3E1,9E0],"tree_param":{"num_deleted":"0","num_feature":"8","num_nodes":"39","size_leaf_vector":"1"}},{"base_weights":[-2.167096E1,-3.3139594E2,1.4127971E2,-1.4281686E1,-2.1922491E2,6.3141502E1,3.6560916E2,-3.277959E2,-5.6288338E1,-1.4718643E1,2.8570483E2,2.6778647E2,1.7849497E1,-1.2698605E1,-2.3312988E2,-7.8065624E0,6.765985E1,-1.6717326E2,6.1731678E1,1.359212E2,1.7992512E1,3.569578E2,6.425595E-3,-8.105545E0,-1.6579053E0,5.6508417E0,-1.2086493E0,-7.0369897E0,2.4801908E-1,-1.4971117E0,3.679479E0,-1.4379983E-1,8.627239E0,1.3244683E0,1.2097079E1],"categories":[],"categories_nodes":[],"categories_segments":[],"categories_sizes":[],"default_left":[0,0,0,0,0,0,0,0,0,0,0,0,0,0,0,0,0,0,0,0,0,0,0,0,0,0,0,0,0,0,0,0,0,0,0],"id":14,"left_children":[1,3,5,-1,7,9,11,13,15,17,19,21,-1,-1,23,-1,25,27,29,31,-1,33,-1,-1,-1,-1,-1,-1,-1,-1,-1,-1,-1,-1,-1],"loss_changes":[1.347181E7,2.085341E6,3.0444378E6,0E0,1.07834E6,2.2742795E6,1.206863E6,4.3635475E5,7.988866E5,1.1525299E6,1.9486302E6,8.5876475E5,0E0,0E0,3.0405238E5,0E0,3.130748E5,5.935355E5,6.2538525E5,7.1261006E5,0E0,8.4299125E5,0E0,0E0,0E0,0E0,0E0,0E0,0E0,0E0,0E0,0E0,0E0,0E0,0E0],"parents":[2147483647,0,0,1,1,2,2,4,4,5,5,6,6,7,7,8,8,9,9,10,10,11,11,14,14,16,16,17,17,18,18,19,19,21,21],"right_children":[2,4,6,-1,8,10,12,14,16,18,20,22,-1,-1,24,-1,26,28,30,32,-1,34,-1,-1,-1,-1,-1,-1,-1,-1,-1,-1,-1,-1,-1],"split_conditions":[-5.290507E-1,-6.9182515E-1,8.826778E-1,-1.4281686E1,2.9592645E-1,7.0744383E-1,9.711552E-1,-9.36479E-1,-9.0322024E-1,-7.764012E-1,7.13398E-1,1.567033E0,1.7849497E1,-1.2698605E1,-4.5481563E-2,-7.8065624E0,-6.298831E-1,6.4805716E-1,-6.507472E-1,5.350963E-2,1.7992512E1,-7.477971E-1,6.425595E-3,-8.105545E0,-1.6579053E0,5.6508417E0,-1.2086493E0,-7.0369897E0,2.4801908E-1,-1.4971117E0,3.679479E0,-1.4379983E-1,8.627239E0,1.3244683E0,1.2097079E1],"split_indices":[6,7,3,0,0,0,5,3,2,3,2,3,0,0,4,0,7,2,0,6,0,0,0,0,0,0,0,0,0,0,0,0,0,0,0],"split_type":[0,0,0,0,0,0,0,0,0,0,0,0,0,0,0,0,0,0,0,0,0,0,0,0,0,0,0,0,0,0,0,0,0,0,0],"sum_hessian":[2.65E2,9.1E1,1.74E2,3E1,6.1E1,1.3E2,4.4E1,3.6E1,2.5E1,9.7E1,3.3E1,3.5E1,9E0,1.2E1,2.4E1,8E0,1.7E1,3.2E1,6.5E1,2.5E1,8E0,2.6E1,9E0,1.6E1,8E0,7E0,1E1,2E1,1.2E1,2.6E1,3.9E1,1.5E1,1E1,7E0,1.9E1],"tree_param":{"num_deleted":"0","num_feature":"8","num_nodes":"35","size_leaf_vector":"1"}},{"base_weights":[9.308545E0,-3.281315E2,2.3551512E2,-1.8328896E1,-4.130407E2,7.037658E2,-6.4053553E-1,-6.533058E0,1.4162875E2,-1.4266521E1,-3.4598578E2,3.1416504E2,9.005514E2,-1.651678E2,1.40393E2,-3.213873E-1,6.8830934E0,-2.1163214E2,-1.209808E1,7.468413E-1,1.3783548E1,1.1321367E3,5.803378E2,-2.2190579E2,3.3516127E-1,-1.2627934E1,4.0706543E2,-9.367089E0,-1.8469752E0,2.329875E1,3.709772E1,8.682545E0,1.8568588E1,-4.146558E0,-7.925365E0,-2.871385E0,4.77375E0,1.494041E1,2.3573496E0],"categories":[],"categories_nodes":[],"categories_segments":[],"categories_sizes":[],"default_left":[0,0,0,0,0,0,0,0,0,0,0,0,0,0,0,0,0,0,0,0,0,0,0,0,0,0,0,0,0,0,0,0,0,0,0,0,0,0,0],"id":15,"left_children":[1,3,5,7,9,11,13,-1,15,-1,17,19,21,23,25,-1,-1,27,-1,-1,-1,29,31,33,-1,35,37,-1,-1,-1,-1,-1,-1,-1,-1,-1,-1,-1,-1],"loss_changes":[2.2060654E7,3.043821E6,1.91308E7,9.960151E5,6.13595E5,4.16381E6,2.7148365E6,0E0,3.013048E5,0E0,8.818295E5,1.2560066E6,2.160938E6,5.4807825E5,2.5759475E6,0E0,0E0,6.129821E5,0E0,0E0,0E0,1.8841E5,3.40235E5,1.6238512E5,0E0,7.943868E5,1.1383965E6,0E0,0E0,0E0,0E0,0E0,0E0,0E0,0E0,0E0,0E0,0E0,0E0],"parents":[2147483647,0,0,1,1,2,2,3,3,4,4,5,5,6,6,8,8,10,10,11,11,12,12,13,13,14,14,17,17,21,21,22,22,23,23,25,25,26,26],"right_children":[2,4,6,8,10,12,14,-1,16,-1,18,20,22,24,26,-1,-1,28,-1,-1,-1,30,32,34,-1,36,38,-1,-1,-1,-1,-1,-1,-1,-1,-1,-1,-1,-1],"split_conditions":[-4.7730437E-1,-9.8479474E-1,-6.297177E-1,-6.5169966E-1,-8.3846086E-1,-5.422649E-2,-1.02672964E-1,-6.533058E0,-1.02057874E-1,-1.4266521E1,4.9362895E-1,-6.0823905E-1,-1.2385988E0,5.676239E-1,6.1382395E-1,-3.213873E-1,6.8830934E0,-3.969271E-1,-1.209808E1,7.468413E-1,1.3783548E1,5.160589E-1,5.4083437E-1,6.878249E-1,3.3516127E-1,6.63849E-1,6.489857E-1,-9.367089E0,-1.8469752E0,2.329875E1,3.709772E1,8.682545E0,1.8568588E1,-4.146558E0,-7.925365E0,-2.871385E0,4.77375E0,1.494041E1,2.3573496E0],"split_indices":[6,1,1,7,5,0,0,0,0,0,1,3,1,4,3,0,0,0,0,0,0,3,0,1,0,4,1,0,0,0,0,0,0,0,0,0,0,0,0],"split_type":[0,0,0,0,0,0,0,0,0,0,0,0,0,0,0,0,0,0,0,0,0,0,0,0,0,0,0,0,0,0,0,0,0,0,0,0,0,0,0],"sum_hessian":[2.87E2,1.15E2,1.72E2,2.5E1,9E1,5.7E1,1.15E2,1E1,1.5E1,2.8E1,6.2E1,2E1,3.7E1,5.3E1,6.2E1,7E0,8E0,3E1,3.2E1,9E0,1.1E1,2E1,1.7E1,4E1,1.3E1,4E1,2.2E1,1.4E1,1.6E1,1.3E1,7E0,7E0,1E1,2.4E1,1.6E1,2.7E1,1.3E1,1.4E1,8E0],"tree_param":{"num_deleted":"0","num_feature":"8","num_nodes":"39","size_leaf_vector":"1"}},{"base_weights":[5.3674383E0,-2.826327E2,1.7513995E2,-5.369986E2,-1.791294E2,6.125396E2,1.6581184E1,-1.0448619E1,-1.6754887E1,4.9180206E1,-3.0382166E2,3.931806E2,8.549583E2,-1.0288397E2,2.1783319E2,-8.793733E1,5.971718E0,-3.7592163E2,2.7163842E0,2.4968431E2,1.7944529E1,1.3386555E1,2.692049E1,-1.5585408E2,5.6252337E0,4.780731E2,3.0845913E1,-4.704152E0,8.513102E-2,-1.1481422E1,-6.583664E0,2.3689303E0,1.00616045E1,-8.8253355E0,-2.6301773E0,6.51549E0,1.5262428E1,-1.7324561E0,3.65417E0],"categories":[],"categories_nodes":[],"categories_segments":[],"categories_sizes":[],"default_left":[0,0,0,0,0,0,0,0,0,0,0,0,0,0,0,0,0,0,0,0,0,0,0,0,0,0,0,0,0,0,0,0,0,0,0,0,0,0,0],"id":16,"left_children":[1,3,5,7,9,11,13,-1,-1,15,17,19,21,23,25,27,-1,29,-1,31,-1,-1,-1,33,-1,35,37,-1,-1,-1,-1,-1,-1,-1,-1,-1,-1,-1,-1],"loss_changes":[1.3446596E7,2.5892345E6,1.1988007E7,1.55671E5,2.1216065E6,2.109976E6,3.0998648E6,0E0,0E0,6.817125E5,1.449212E6,9.1714825E5,7.21074E5,1.396001E6,2.321008E6,1.3421481E5,0E0,2.08106E5,0E0,3.7173262E5,0E0,0E0,0E0,6.689016E5,0E0,3.34199E5,3.146319E5,0E0,0E0,0E0,0E0,0E0,0E0,0E0,0E0,0E0,0E0,0E0,0E0],"parents":[2147483647,0,0,1,1,2,2,3,3,4,4,5,5,6,6,9,9,10,10,11,11,12,12,13,13,14,14,15,15,17,17,19,19,23,23,25,25,26,26],"right_children":[2,4,6,8,10,12,14,-1,-1,16,18,20,22,24,26,28,-1,30,-1,32,-1,-1,-1,34,-1,36,38,-1,-1,-1,-1,-1,-1,-1,-1,-1,-1,-1,-1],"split_conditions":[-4.6946713E-1,-8.1499547E-1,-7.4145716E-1,-5.0119653E-2,-6.7154664E-1,4.4540125E-1,4.4273514E-1,-1.0448619E1,-1.6754887E1,-6.5725476E-1,1.1026491E0,8.9961034E-1,-6.61788E-1,1.0433004E0,1.3630845E-1,-2.3314983E-2,5.971718E0,2.8909418E-1,2.7163842E0,1.0055748E-1,1.7944529E1,1.3386555E1,2.692049E1,-1.0970643E0,5.6252337E0,-3.4211224E-1,1.2492967E0,-4.704152E0,8.513102E-2,-1.1481422E1,-6.583664E0,2.3689303E0,1.00616045E1,-8.8253355E0,-2.6301773E0,6.51549E0,1.5262428E1,-1.7324561E0,3.65417E0],"split_indices":[6,6,1,1,1,0,3,0,0,5,3,6,2,0,1,4,0,2,0,3,0,0,0,3,0,2,3,0,0,0,0,0,0,0,0,0,0,0,0],"split_type":[0,0,0,0,0,0,0,0,0,0,0,0,0,0,0,0,0,0,0,0,0,0,0,0,0,0,0,0,0,0,0,0,0,0,0,0,0,0,0],"sum_hessian":[2.73E2,1.01E2,1.72E2,2.8E1,7.3E1,4.5E1,1.27E2,1.4E1,1.4E1,2.6E1,4.7E1,2.5E1,2E1,8E1,4.7E1,1.5E1,1.1E1,4E1,7E0,1.8E1,7E0,8E0,1.2E1,6.9E1,1.1E1,1.9E1,2.8E1,7E0,8E0,2.5E1,1.5E1,9E0,9E0,1.5E1,5.4E1,7E0,1.2E1,1.5E1,1.3E1],"tree_param":{"num_deleted":"0","num_feature":"8","num_nodes":"39","size_leaf_vector":"1"}},{"base_weights":[4.5479523E1,-2.3382028E2,2.9004327E2,-4.8833563E2,-1.0210486E2,6.211405E0,4.5635605E2,-1.4754653E1,-1.0621062E1,-1.1146386E1,-2.8203224E1,-1.2215326E2,2.3558968E2,3.579411E-1,5.339423E2,-1.5536275E2,1.338056E2,-2.0614876E2,-1.4774036E1,-4.7462928E-1,1.0090447E1,3.8793628E2,6.8555084E2,-6.018163E0,-6.839186E-1,-2.4422584E0,6.6023307E0,-7.5339036E0,-1.5280406E0,-1.7912755E0,9.0403384E-1,3.2982366E0,1.1778562E1,7.991681E0,2.1107557E1],"categories":[],"categories_nodes":[],"categories_segments":[],"categories_sizes":[],"default_left":[0,0,0,0,0,0,0,0,0,0,0,0,0,0,0,0,0,0,0,0,0,0,0,0,0,0,0,0,0,0,0,0,0,0,0],"id":17,"left_children":[1,3,5,7,9,11,13,-1,-1,-1,15,17,19,-1,21,23,25,27,29,-1,-1,31,33,-1,-1,-1,-1,-1,-1,-1,-1,-1,-1,-1,-1],"loss_changes":[1.7690922E7,4.006494E6,6.511437E6,2.6145E4,1.9232088E6,1.5598695E6,2.980902E6,0E0,0E0,0E0,1.401053E6,3.0361297E5,7.276355E5,0E0,1.372096E6,3.5903625E5,8.2824206E5,2.1180262E5,4.4608277E4,0E0,0E0,5.889485E5,1.352646E6,0E0,0E0,0E0,0E0,0E0,0E0,0E0,0E0,0E0,0E0,0E0,0E0],"parents":[2147483647,0,0,1,1,2,2,3,3,4,4,5,5,6,6,10,10,11,11,12,12,14,14,15,15,16,16,17,17,18,18,21,21,22,22],"right_children":[2,4,6,8,10,12,14,-1,-1,-1,16,18,20,-1,22,24,26,28,30,-1,-1,32,34,-1,-1,-1,-1,-1,-1,-1,-1,-1,-1,-1,-1],"split_conditions":[-4.233824E-1,-7.623131E-1,-1.02057874E-1,-8.371816E-1,-9.274214E-1,4.1829386E-1,-1.0970643E0,-1.4754653E1,-1.0621062E1,-1.1146386E1,1.5074354E-1,2.8774637E-1,3.8395467E-1,3.579411E-1,6.4470094E-1,-4.3681338E-1,-6.739242E-1,3.5087234E-1,2.781505E-1,-4.7462928E-1,1.0090447E1,-1.1094774E0,-7.839888E-1,-6.018163E0,-6.839186E-1,-2.4422584E0,6.6023307E0,-7.5339036E0,-1.5280406E0,-1.7912755E0,9.0403384E-1,3.2982366E0,1.1778562E1,7.991681E0,2.1107557E1],"split_indices":[5,5,0,6,2,3,3,0,0,0,0,6,6,0,0,7,3,2,4,0,0,4,2,0,0,0,0,0,0,0,0,0,0,0,0],"split_type":[0,0,0,0,0,0,0,0,0,0,0,0,0,0,0,0,0,0,0,0,0,0,0,0,0,0,0,0,0,0,0,0,0,0,0],"sum_hessian":[2.57E2,1.2E2,1.37E2,4E1,8E1,5.1E1,8.6E1,1.8E1,2.2E1,1.4E1,6.6E1,3.3E1,1.8E1,1.3E1,7.3E1,3.7E1,2.9E1,1.8E1,1.5E1,7E0,1.1E1,3.9E1,3.4E1,2.3E1,1.4E1,1E1,1.9E1,1.1E1,7E0,7E0,8E0,8E0,3.1E1,9E0,2.5E1],"tree_param":{"num_deleted":"0","num_feature":"8","num_nodes":"35","size_leaf_vector":"1"}},{"base_weights":[-1.7953272E1,-1.9812201E2,2.0992363E2,-4.7074606E2,-1.07868164E2,-1.1957519E1,3.9017438E2,-1.3154152E1,-7.5154796E0,-3.0109344E2,2.0661722E1,-8.306762E1,1.602467E2,2.864034E2,6.137269E2,-3.4604706E2,-1.895583E2,-2.0127304E2,1.082083E2,-1.5644069E2,1.8240155E0,3.7410402E-1,7.557124E0,1.7901326E2,1.4204241E1,1.9443647E1,9.437678E0,-9.798558E0,-6.028712E0,-6.487675E0,-2.6352193E0,-7.3259487E0,-1.7238027E0,-1.1900722E-1,8.128337E0,-6.313547E0,-1.0584363E0,-2.1468215E0,7.784965E0],"categories":[],"categories_nodes":[],"categories_segments":[],"categories_sizes":[],"default_left":[0,0,0,0,0,0,0,0,0,0,0,0,0,0,0,0,0,0,0,0,0,0,0,0,0,0,0,0,0,0,0,0,0,0,0,0,0,0,0],"id":18,"left_children":[1,3,5,7,9,11,13,-1,-1,15,17,19,21,23,25,27,29,31,33,35,-1,-1,-1,37,-1,-1,-1,-1,-1,-1,-1,-1,-1,-1,-1,-1,-1,-1,-1],"loss_changes":[1.1619465E7,3.8368695E6,5.0039465E6,8.0315E4,2.986448E6,7.113025E5,1.424907E6,0E0,0E0,1.750715E5,1.4401422E6,4.7019534E5,3.1391894E5,1.2484222E6,4.15977E5,2.075475E4,5.7733562E4,2.0442912E5,1.2085259E6,2.648658E5,0E0,0E0,0E0,1.1337089E6,0E0,0E0,0E0,0E0,0E0,0E0,0E0,0E0,0E0,0E0,0E0,0E0,0E0,0E0,0E0],"parents":[2147483647,0,0,1,1,2,2,3,3,4,4,5,5,6,6,9,9,10,10,11,11,12,12,13,13,14,14,15,15,16,16,17,17,18,18,19,19,23,23],"right_children":[2,4,6,8,10,12,14,-1,-1,16,18,20,22,24,26,28,30,32,34,36,-1,-1,-1,38,-1,-1,-1,-1,-1,-1,-1,-1,-1,-1,-1,-1,-1,-1,-1],"split_conditions":[-2.2923155E-1,-8.04284E-1,-1.6796933E-1,8.4400064E-1,-2.6727617E-1,6.3948506E-1,1.1843687E0,-1.3154152E1,-7.5154796E0,-4.3819943E-1,-6.2501353E-1,3.1272098E-1,-9.995217E-1,1.144172E0,2.3628256E0,-4.8691386E-1,-1.3100444E-1,-5.22357E-1,8.4400064E-1,6.6998297E-1,1.8240155E0,3.7410402E-1,7.557124E0,-4.7050583E-1,1.4204241E1,1.9443647E1,9.437678E0,-9.798558E0,-6.028712E0,-6.487675E0,-2.6352193E0,-7.3259487E0,-1.7238027E0,-1.1900722E-1,8.128337E0,-6.313547E0,-1.0584363E0,-2.1468215E0,7.784965E0],"split_indices":[6,5,0,0,0,3,7,0,0,6,2,2,0,0,7,0,2,5,0,6,0,0,0,3,0,0,0,0,0,0,0,0,0,0,0,0,0,0,0],"split_type":[0,0,0,0,0,0,0,0,0,0,0,0,0,0,0,0,0,0,0,0,0,0,0,0,0,0,0,0,0,0,0,0,0,0,0,0,0,0,0],"sum_hessian":[2.81E2,1.57E2,1.24E2,3.8E1,1.19E2,5.6E1,6.8E1,3.1E1,7E0,4.7E1,7.2E1,4E1,1.6E1,4.8E1,2E1,3.2E1,1.5E1,2E1,5.2E1,2.7E1,1.3E1,8E0,8E0,3.5E1,1.3E1,1.2E1,8E0,2.4E1,8E0,8E0,7E0,1.2E1,8E0,3.4E1,1.8E1,1.5E1,1.2E1,1.1E1,2.4E1],"tree_param":{"num_deleted":"0","num_feature":"8","num_nodes":"39","size_leaf_vector":"1"}},{"base_weights":[4.3455406E1,3.832804E2,-1.5333167E2,5.543258E1,6.2666815E2,-4.044703E2,-1.4715821E1,-7.474359E0,1.8552242E2,1.661248E2,7.952188E2,-4.579839E2,-2.8582742E2,-2.0372113E2,9.079736E1,-1.0555608E0,3.1173044E2,-6.046153E-1,9.386007E0,8.442187E0,9.4215594E2,-1.2797909E1,-7.310239E0,-5.076818E0,-9.635625E0,-2.9014642E2,-7.511115E-1,2.7755994E2,5.091777E0,5.1462493E0,1.1289799E1,2.9540144E1,1.7030472E1,-9.380016E0,-2.430912E0,2.8064668E0,1.1484002E1,1.9670429E0,-3.133772E0],"categories":[],"categories_nodes":[],"categories_segments":[],"categories_sizes":[],"default_left":[0,0,0,0,0,0,0,0,0,0,0,0,0,0,0,0,0,0,0,0,0,0,0,0,0,0,0,0,0,0,0,0,0,0,0,0,0,0,0],"id":19,"left_children":[1,3,5,7,9,11,13,-1,15,17,19,21,23,25,27,-1,29,-1,-1,-1,31,-1,-1,-1,-1,33,-1,35,37,-1,-1,-1,-1,-1,-1,-1,-1,-1,-1],"loss_changes":[1.7512664E7,7.625499E6,5.772805E6,1.9143449E6,4.137264E6,2.43688E5,2.172293E6,0E0,8.96016E5,5.8973956E5,2.476676E6,7.621E4,8.7125375E4,5.81723E5,1.1190482E6,0E0,1.9016962E5,0E0,0E0,0E0,8.90892E5,0E0,0E0,0E0,0E0,3.1488975E5,0E0,5.5574225E5,4.365323E5,0E0,0E0,0E0,0E0,0E0,0E0,0E0,0E0,0E0,0E0],"parents":[2147483647,0,0,1,1,2,2,3,3,4,4,5,5,6,6,8,8,9,9,10,10,11,11,12,12,13,13,14,14,16,16,20,20,25,25,27,27,28,28],"right_children":[2,4,6,8,10,12,14,-1,16,18,20,22,24,26,28,-1,30,-1,-1,-1,32,-1,-1,-1,-1,34,-1,36,38,-1,-1,-1,-1,-1,-1,-1,-1,-1,-1],"split_conditions":[-4.3851152E-1,-3.6572978E-1,-5.759006E-1,-6.665837E-1,-2.0232283E-1,-7.336184E-1,-2.6727617E-1,-7.474359E0,-4.0223694E-1,4.059958E-1,-5.455259E-1,8.4400064E-1,7.0336056E-1,3.1272098E-1,2.1398681E-1,-1.0555608E0,6.945259E-1,-6.046153E-1,9.386007E0,8.442187E0,-9.8479474E-1,-1.2797909E1,-7.310239E0,-5.076818E0,-9.635625E0,5.4266703E-1,-7.511115E-1,-1.0294459E-1,1.2005022E0,5.1462493E0,1.1289799E1,2.9540144E1,1.7030472E1,-9.380016E0,-2.430912E0,2.8064668E0,1.1484002E1,1.9670429E0,-3.133772E0],"split_indices":[1,5,5,7,0,5,0,0,0,6,2,0,1,2,1,0,0,0,0,0,1,0,0,0,0,5,0,2,1,0,0,0,0,0,0,0,0,0,0],"split_type":[0,0,0,0,0,0,0,0,0,0,0,0,0,0,0,0,0,0,0,0,0,0,0,0,0,0,0,0,0,0,0,0,0,0,0,0,0,0,0],"sum_hessian":[2.6E2,9.5E1,1.65E2,4.1E1,5.4E1,5.8E1,1.07E2,1.1E1,3E1,1.5E1,3.9E1,3.8E1,2E1,3.8E1,6.9E1,1.1E1,1.9E1,8E0,7E0,1E1,2.9E1,3.1E1,7E0,1.1E1,9E0,2.5E1,1.3E1,2.1E1,4.8E1,1.1E1,8E0,1.6E1,1.3E1,1.8E1,7E0,1.1E1,1E1,3.1E1,1.7E1],"tree_param":{"num_deleted":"0","num_feature":"8","num_nodes":"39","size_leaf_vector":"1"}},{"base_weights":[-3.8151768E1,-2.2849054E2,1.9444937E2,-4.3016617E2,-1.0982425E2,4.4238077E2,-6.965863E1,-1.3125626E1,-3.4909595E2,7.33137E1,-2.18445E2,1.6138182E2,6.465119E2,-2.8240314E2,4.451057E0,-1.019248E1,-5.8081026E0,-2.411801E0,1.7520903E2,-2.7344318E2,-6.971746E1,2.2577442E1,9.465089E0,7.7400653E2,1.0480629E1,-8.967919E0,-4.906529E0,-1.0393369E2,1.5253276E2,7.270457E0,2.1766207E0,-5.1965823E0,-9.753881E0,5.1214284E-1,-3.9627295E0,-2.000114E0,3.1175587E0,1.5370284E1,2.4636854E1,-5.333268E0,-1.053046E-1,6.0519786E0,4.1433755E-1],"categories":[],"categories_nodes":[],"categories_segments":[],"categories_sizes":[],"default_left":[0,0,0,0,0,0,0,0,0,0,0,0,0,0,0,0,0,0,0,0,0,0,0,0,0,0,0,0,0,0,0,0,0,0,0,0,0,0,0,0,0,0,0],"id":20,"left_children":[1,3,5,7,9,11,13,-1,15,17,19,21,23,25,27,-1,-1,-1,29,31,33,35,-1,37,-1,-1,-1,39,41,-1,-1,-1,-1,-1,-1,-1,-1,-1,-1,-1,-1,-1,-1],"loss_changes":[1.1599688E7,3.3989795E6,7.757534E6,1.29171E5,1.8461326E6,3.394663E6,9.157098E5,0E0,5.61145E4,6.05849E5,4.553615E5,7.408065E5,7.90496E5,2.1332125E4,7.220444E5,0E0,0E0,0E0,1.8424356E5,2.379095E5,1.2665484E5,1.7117798E5,0E0,1.33871E5,0E0,0E0,0E0,2.5793622E5,2.0009812E5,0E0,0E0,0E0,0E0,0E0,0E0,0E0,0E0,0E0,0E0,0E0,0E0,0E0,0E0],"parents":[2147483647,0,0,1,1,2,2,3,3,4,4,5,5,6,6,8,8,9,9,10,10,11,11,12,12,13,13,14,14,18,18,19,19,20,20,21,21,23,23,27,27,28,28],"right_children":[2,4,6,8,10,12,14,-1,16,18,20,22,24,26,28,-1,-1,-1,30,32,34,36,-1,38,-1,-1,-1,40,42,-1,-1,-1,-1,-1,-1,-1,-1,-1,-1,-1,-1,-1,-1],"split_conditions":[-2.6501048E-1,-6.9025904E-1,-1.433337E-1,-7.1258396E-2,-4.89901E-1,-2.0232283E-1,-8.064296E-1,-1.3125626E1,-7.913852E-1,-7.1258396E-2,8.852514E-1,1.810996E-1,-6.4483774E-1,-2.120468E-1,3.0567795E-1,-1.019248E1,-5.8081026E0,-2.411801E0,-7.802964E-1,6.095178E-1,-4.906776E-1,-7.50397E-1,9.465089E0,5.4083437E-1,1.0480629E1,-8.967919E0,-4.906529E0,6.8714774E-1,5.3246814E-1,7.270457E0,2.1766207E0,-5.1965823E0,-9.753881E0,5.1214284E-1,-3.9627295E0,-2.000114E0,3.1175587E0,1.5370284E1,2.4636854E1,-5.333268E0,-1.053046E-1,6.0519786E0,4.1433755E-1],"split_indices":[6,7,1,0,1,0,3,0,6,0,2,3,1,2,0,0,0,0,1,1,6,0,0,0,0,0,0,3,1,0,0,0,0,0,0,0,0,0,0,0,0,0,0],"split_type":[0,0,0,0,0,0,0,0,0,0,0,0,0,0,0,0,0,0,0,0,0,0,0,0,0,0,0,0,0,0,0,0,0,0,0,0,0,0,0,0,0,0,0],"sum_hessian":[2.6E2,1.43E2,1.17E2,5.2E1,9.1E1,6E1,5.7E1,2.5E1,2.7E1,3.4E1,5.7E1,2.6E1,3.4E1,1.4E1,4.3E1,1.9E1,8E0,1.3E1,2.1E1,4.1E1,1.6E1,1.6E1,1E1,2.1E1,1.3E1,7E0,7E0,2.5E1,1.8E1,9E0,1.2E1,2.5E1,1.6E1,8E0,8E0,8E0,8E0,1.2E1,9E0,1.2E1,1.3E1,1.1E1,7E0],"tree_param":{"num_deleted":"0","num_feature":"8","num_nodes":"43","size_leaf_vector":"1"}},{"base_weights":[-2.0729637E1,1.8886372E2,-1.919463E2,2.622225E1,5.8774786E2,-3.9940466E2,-8.5230515E1,-2.7040222E2,1.2469976E2,4.0055917E2,2.0569056E1,-4.3485675E2,-4.16423E0,-1.4046634E2,1.2661998E2,-1.497051E0,-9.593273E0,-2.0939188E1,3.2310046E2,1.3431818E1,6.8723564E0,-1.20803585E1,-6.8832436E0,-2.9203873E2,-9.419587E1,-1.1358906E0,6.1458716E0,-3.1768823E0,1.226346E0,2.9413767E0,1.378069E1,-8.874376E0,-5.015146E0,-4.0025845E-1,-4.273315E0],"categories":[],"categories_nodes":[],"categories_segments":[],"categories_sizes":[],"default_left":[0,0,0,0,0,0,0,0,0,0,0,0,0,0,0,0,0,0,0,0,0,0,0,0,0,0,0,0,0,0,0,0,0,0,0],"id":21,"left_children":[1,3,5,7,9,11,13,15,17,19,-1,21,-1,23,25,-1,-1,27,29,-1,-1,-1,-1,31,33,-1,-1,-1,-1,-1,-1,-1,-1,-1,-1],"loss_changes":[9.653668E6,7.8344765E6,3.242543E6,2.5750622E6,9.77876E5,3.57168E5,1.1762578E6,4.2817525E5,1.9138268E6,1.7545425E5,0E0,7.2695E4,0E0,5.265441E5,3.9541653E5,0E0,0E0,2.706689E5,1.1383878E6,0E0,0E0,0E0,0E0,1.9673125E4,3.345985E5,0E0,0E0,0E0,0E0,0E0,0E0,0E0,0E0,0E0,0E0],"parents":[2147483647,0,0,1,1,2,2,3,3,4,4,5,5,6,6,7,7,8,8,9,9,11,11,13,13,14,14,17,17,18,18,23,23,24,24],"right_children":[2,4,6,8,10,12,14,16,18,20,-1,22,-1,24,26,-1,-1,28,30,-1,-1,-1,-1,32,34,-1,-1,-1,-1,-1,-1,-1,-1,-1,-1],"split_conditions":[-1.821729E-1,1.1819419E-1,-5.459437E-1,-7.5361407E-1,9.986899E-3,9.5055044E-1,7.0744383E-1,-1.2385988E0,1.0080692E-1,-1.0779797E0,2.0569056E1,6.4805716E-1,-4.16423E0,-9.015342E-1,-6.8156284E-1,-1.497051E0,-9.593273E0,-6.661458E-1,-3.9238137E-1,1.3431818E1,6.8723564E0,-1.20803585E1,-6.8832436E0,-3.4214616E-1,7.2666407E-1,-1.1358906E0,6.1458716E0,-3.1768823E0,1.226346E0,2.9413767E0,1.378069E1,-8.874376E0,-5.015146E0,-4.0025845E-1,-4.273315E0],"split_indices":[1,5,6,5,2,0,0,1,0,1,0,2,0,3,3,0,0,4,3,0,0,0,0,0,1,0,0,0,0,0,0,0,0,0,0],"split_type":[0,0,0,0,0,0,0,0,0,0,0,0,0,0,0,0,0,0,0,0,0,0,0,0,0,0,0,0,0,0,0,0,0,0,0],"sum_hessian":[2.67E2,1.2E2,1.47E2,8.6E1,3.4E1,4.9E1,9.8E1,2.1E1,6.5E1,1.9E1,1.5E1,4.2E1,7E0,7.8E1,2E1,7E0,1.4E1,3.8E1,2.7E1,9E0,1E1,3.5E1,7E0,1.7E1,6.1E1,8E0,1.2E1,1.5E1,2.3E1,1.4E1,1.3E1,1E1,7E0,2.9E1,3.2E1],"tree_param":{"num_deleted":"0","num_feature":"8","num_nodes":"35","size_leaf_vector":"1"}},{"base_weights":[-8.023769E0,-3.08148E2,1.4541765E2,5.884582E-1,-3.6283582E2,3.7659012E2,-8.9939186E1,-4.2511578E2,-2.6790298E2,6.236135E2,2.5098863E2,-1.5383199E2,7.019568E0,-1.1643075E1,-7.2901425E0,-3.366099E2,-2.4536726E0,6.8231983E0,8.8604645E2,1.3264146E2,4.7573114E2,-6.765859E1,-2.2784624E2,-9.760061E0,-5.720067E0,2.7221725E1,1.5308438E1,-3.1600094E-1,5.38262E0,8.265837E0,1.3974777E1,-6.5380654E0,7.760008E-1,-6.826816E0,-4.204988E0],"categories":[],"categories_nodes":[],"categories_segments":[],"categories_sizes":[],"default_left":[0,0,0,0,0,0,0,0,0,0,0,0,0,0,0,0,0,0,0,0,0,0,0,0,0,0,0,0,0,0,0,0,0,0,0],"id":22,"left_children":[1,3,5,-1,7,9,11,13,15,17,19,21,-1,-1,-1,23,-1,-1,25,27,29,31,33,-1,-1,-1,-1,-1,-1,-1,-1,-1,-1,-1,-1],"loss_changes":[1.2524763E7,1.671519E6,9.827314E6,0E0,3.5319E5,2.666893E6,2.0988865E6,6.3245E3,3.7555825E5,2.628837E6,1.5859522E6,4.7569488E5,0E0,0E0,0E0,2.054775E4,0E0,0E0,1.77274E5,4.448032E5,2.56335E4,6.619315E5,4.8488E4,0E0,0E0,0E0,0E0,0E0,0E0,0E0,0E0,0E0,0E0,0E0,0E0],"parents":[2147483647,0,0,1,1,2,2,4,4,5,5,6,6,7,7,8,8,9,9,10,10,11,11,15,15,18,18,19,19,20,20,21,21,22,22],"right_children":[2,4,6,-1,8,10,12,14,16,18,20,22,-1,-1,-1,24,-1,-1,26,28,30,32,34,-1,-1,-1,-1,-1,-1,-1,-1,-1,-1,-1,-1],"split_conditions":[-5.459437E-1,-1.036635E0,-1.1226235E-1,5.884582E-1,-6.9025904E-1,-1.1609204E0,1.1026491E0,1.0782079E0,6.4805716E-1,-1.1941386E-1,4.9161765E-1,7.146783E-1,7.019568E0,-1.1643075E1,-7.2901425E0,3.1017813E-1,-2.4536726E0,6.8231983E0,-1.2774379E0,-2.964494E-1,-5.109798E-1,-7.44245E-1,2.2552599E-1,-9.760061E0,-5.720067E0,2.7221725E1,1.5308438E1,-3.1600094E-1,5.38262E0,8.265837E0,1.3974777E1,-6.5380654E0,7.760008E-1,-6.826816E0,-4.204988E0],"split_indices":[6,1,1,0,7,1,3,3,2,3,3,1,0,0,0,4,0,0,1,6,4,2,2,0,0,0,0,0,0,0,0,0,0,0,0],"split_type":[0,0,0,0,0,0,0,0,0,0,0,0,0,0,0,0,0,0,0,0,0,0,0,0,0,0,0,0,0,0,0,0,0,0,0],"sum_hessian":[2.7E2,9.1E1,1.79E2,1.3E1,7.8E1,9E1,8.9E1,4.5E1,3.3E1,2.9E1,6.1E1,7.6E1,1.3E1,3.8E1,7E0,2.3E1,1E1,1.3E1,1.6E1,4.1E1,2E1,3.6E1,4E1,1.6E1,7E0,9E0,7E0,1.4E1,2.7E1,7E0,1.3E1,1.2E1,2.4E1,2.5E1,1.5E1],"tree_param":{"num_deleted":"0","num_feature":"8","num_nodes":"35","size_leaf_vector":"1"}},{"base_weights":[-2.4697018E1,-3.4862018E2,1.08615036E2,1.9120994E0,-4.0902737E2,3.1040387E2,-7.8555405E1,-3.199105E2,-1.1959985E1,-4.7617E1,4.460004E2,-1.7341083E2,2.9518135E1,-1.0692573E1,-5.667593E0,-1.3550478E2,3.0222824E0,7.5968964E2,3.2039066E2,-1.0992614E2,-2.636412E2,-9.643882E1,1.5429437E2,-5.650843E0,-1.7003391E0,1.2106785E1,2.4477314E1,1.6791009E0,1.0648464E1,-6.5065727E0,-1.6992396E0,-8.380508E0,-5.244076E0,-5.7831573E0,-3.3388788E-1,-6.011814E-1,7.1790643E0],"categories":[],"categories_nodes":[],"categories_segments":[],"categories_sizes":[],"default_left":[0,0,0,0,0,0,0,0,0,0,0,0,0,0,0,0,0,0,0,0,0,0,0,0,0,0,0,0,0,0,0,0,0,0,0,0,0],"id":23,"left_children":[1,3,5,-1,7,9,11,13,-1,15,17,19,21,-1,-1,23,-1,25,27,29,31,33,35,-1,-1,-1,-1,-1,-1,-1,-1,-1,-1,-1,-1,-1,-1],"loss_changes":[1.1999518E7,2.0927E6,7.4648585E6,0E0,1.53986E5,4.633144E6,1.0610089E6,1.67504E5,0E0,4.023279E5,2.475368E6,2.8607275E5,7.849852E5,0E0,0E0,8.788444E4,0E0,5.55024E5,1.09811E6,1.9599384E5,1.4499E4,2.5721147E5,5.3661825E5,0E0,0E0,0E0,0E0,0E0,0E0,0E0,0E0,0E0,0E0,0E0,0E0,0E0,0E0],"parents":[2147483647,0,0,1,1,2,2,4,4,5,5,6,6,7,7,9,9,10,10,11,11,12,12,15,15,17,17,18,18,19,19,20,20,21,21,22,22],"right_children":[2,4,6,-1,8,10,12,14,-1,16,18,20,22,-1,-1,24,-1,26,28,30,32,34,36,-1,-1,-1,-1,-1,-1,-1,-1,-1,-1,-1,-1,-1,-1],"split_conditions":[-5.799845E-1,-9.8479474E-1,-1.3556586E-1,1.9120994E0,9.065678E-2,-7.005721E-1,1.972781E-1,-8.223513E-1,-1.1959985E1,-2.1648822E-2,-1.2385988E0,8.0434245E-1,-2.3630035E-1,-1.0692573E1,-5.667593E0,-1.2681531E0,3.0222824E0,-5.3491527E-1,-3.837485E-1,-7.0450115E-1,-2.7984264E-1,-8.7056535E-1,-1.4705284E-1,-5.650843E0,-1.7003391E0,1.2106785E1,2.4477314E1,1.6791009E0,1.0648464E1,-6.5065727E0,-1.6992396E0,-8.380508E0,-5.244076E0,-5.7831573E0,-3.3388788E-1,-6.011814E-1,7.1790643E0],"split_indices":[6,1,1,0,1,0,0,5,0,3,1,1,3,0,0,3,0,3,6,2,2,3,5,0,0,0,0,0,0,0,0,0,0,0,0,0,0],"split_type":[0,0,0,0,0,0,0,0,0,0,0,0,0,0,0,0,0,0,0,0,0,0,0,0,0,0,0,0,0,0,0,0,0,0,0,0,0],"sum_hessian":[2.76E2,8E1,1.96E2,1E1,7E1,9.4E1,1.02E2,2.7E1,4.3E1,2.6E1,6.8E1,5.4E1,4.8E1,1.3E1,1.4E1,1.7E1,9E0,1.8E1,5E1,3.3E1,2.1E1,2.4E1,2.4E1,7E0,1E1,8E0,1E1,1.3E1,3.7E1,7E0,2.6E1,9E0,1.2E1,9E0,1.5E1,1E1,1.4E1],"tree_param":{"num_deleted":"0","num_feature":"8","num_nodes":"37","size_leaf_vector":"1"}},{"base_weights":[-8.4861076E-1,-2.5238022E2,1.6384975E2,-3.7172415E2,-1.3897314E2,4.9884367E0,3.0147412E2,-1.1855659E1,-2.7722018E2,-3.2162302E2,-9.756857E0,-6.246519E1,2.5467021E2,1.855669E2,5.514985E2,-3.1505213E0,-8.546055E0,-1.0095554E1,-5.0823574E0,-1.006933E2,4.5311975E0,-2.1827168E2,4.707887E0,-5.382025E-1,1.17747135E1,3.466719E1,3.3066763E2,4.517676E2,1.8652214E1,-5.848028E0,1.6863707E0,-6.991384E0,-3.0962455E0,-2.743303E0,3.2450194E0,-2.2642977E0,9.267894E0,4.9412384E0,1.1285613E1,4.8057537E0,1.6124853E1],"categories":[],"categories_nodes":[],"categories_segments":[],"categories_sizes":[],"default_left":[0,0,0,0,0,0,0,0,0,0,0,0,0,0,0,0,0,0,0,0,0,0,0,0,0,0,0,0,0,0,0,0,0,0,0,0,0,0,0,0,0],"id":24,"left_children":[1,3,5,7,9,11,13,-1,15,17,19,21,23,25,27,-1,-1,-1,-1,29,-1,31,33,-1,-1,35,37,39,-1,-1,-1,-1,-1,-1,-1,-1,-1,-1,-1,-1,-1],"loss_changes":[1.1516589E7,1.43713E6,3.6715125E6,2.789535E5,1.3657396E6,1.3464215E6,2.505827E6,0E0,1.68187E5,1.2032575E5,5.988611E5,6.6038575E5,9.201539E5,1.367963E6,1.26173E5,0E0,0E0,0E0,0E0,4.995832E5,0E0,6.0810688E4,5.994885E5,0E0,0E0,1.2667012E6,3.73637E5,7.6533125E5,0E0,0E0,0E0,0E0,0E0,0E0,0E0,0E0,0E0,0E0,0E0,0E0,0E0],"parents":[2147483647,0,0,1,1,2,2,3,3,4,4,5,5,6,6,8,8,9,9,10,10,11,11,12,12,13,13,14,14,19,19,21,21,22,22,25,25,26,26,27,27],"right_children":[2,4,6,8,10,12,14,-1,16,18,20,22,24,26,28,-1,-1,-1,-1,30,-1,32,34,-1,-1,36,38,40,-1,-1,-1,-1,-1,-1,-1,-1,-1,-1,-1,-1,-1],"split_conditions":[-4.5563206E-1,3.688504E-2,-8.468891E-2,-6.9944954E-1,-7.721676E-1,1.0048841E0,4.4273514E-1,-1.1855659E1,-6.4885354E-1,-7.143218E-1,8.4400064E-1,-1.6446216E-1,-1.0294459E-1,6.1266795E-2,8.057638E-1,-3.1505213E0,-8.546055E0,-1.0095554E1,-5.0823574E0,-6.5101343E-1,4.5311975E0,3.5087234E-1,-8.500469E-1,-5.382025E-1,1.17747135E1,7.13398E-1,6.945259E-1,-1.4097354E-1,1.8652214E1,-5.848028E0,1.6863707E0,-6.991384E0,-3.0962455E0,-2.743303E0,3.2450194E0,-2.2642977E0,9.267894E0,4.9412384E0,1.1285613E1,4.8057537E0,1.6124853E1],"split_indices":[6,0,0,6,5,3,3,0,6,7,0,6,2,6,2,0,0,0,0,6,0,2,0,0,0,2,0,7,0,0,0,0,0,0,0,0,0,0,0,0,0],"split_type":[0,0,0,0,0,0,0,0,0,0,0,0,0,0,0,0,0,0,0,0,0,0,0,0,0,0,0,0,0,0,0,0,0,0,0,0,0,0,0,0,0],"sum_hessian":[2.76E2,1.09E2,1.67E2,5.2E1,5.7E1,7.8E1,8.9E1,2.6E1,2.6E1,2.3E1,3.4E1,6.2E1,1.6E1,6.2E1,2.7E1,7E0,1.9E1,1.4E1,9E0,2.3E1,1.1E1,1.8E1,4.4E1,7E0,9E0,3.1E1,3.1E1,1.9E1,8E0,1.3E1,1E1,1.1E1,7E0,2.3E1,2.1E1,2.3E1,8E0,1.4E1,1.7E1,8E0,1.1E1],"tree_param":{"num_deleted":"0","num_feature":"8","num_nodes":"41","size_leaf_vector":"1"}},{"base_weights":[2.2564535E1,3.9774994E2,-1.2083575E2,-4.9221344E0,5.215695E2,-3.2770538E2,-9.749578E-1,1.9263481E2,7.058911E2,-1.1132368E1,-2.2704337E2,1.4558301E2,-1.4751768E2,-1.1732008E0,3.141377E2,1.0360812E3,3.8864102E2,-9.095242E0,-1.7176495E2,-2.3352259E1,2.8622516E2,-2.0367473E2,-3.1050865E1,1.1400022E1,3.6374454E0,2.0008041E1,3.2858288E1,5.9054995E0,1.4726371E1,-5.6567316E0,-9.035101E-1,-4.742593E0,1.384248E0,2.9592245E0,1.0048442E1,-6.1138854E0,-2.5204356E0,-3.418241E0,9.1890365E-1],"categories":[],"categories_nodes":[],"categories_segments":[],"categories_sizes":[],"default_left":[0,0,0,0,0,0,0,0,0,0,0,0,0,0,0,0,0,0,0,0,0,0,0,0,0,0,0,0,0,0,0,0,0,0,0,0,0,0,0],"id":25,"left_children":[1,3,5,-1,7,9,11,13,15,-1,17,19,21,-1,23,25,27,-1,29,31,33,35,37,-1,-1,-1,-1,-1,-1,-1,-1,-1,-1,-1,-1,-1,-1,-1,-1],"loss_changes":[1.4789727E7,5.608628E6,4.933996E6,0E0,3.683698E6,6.1744E5,2.7490558E6,7.0636606E5,3.787448E6,0E0,1.9259138E5,1.5272866E6,4.1226325E5,0E0,2.7883338E5,1.70734E5,4.96069E5,0E0,1.6214694E5,3.698466E5,5.46611E5,1.14622125E5,1.4917083E5,0E0,0E0,0E0,0E0,0E0,0E0,0E0,0E0,0E0,0E0,0E0,0E0,0E0,0E0,0E0,0E0],"parents":[2147483647,0,0,1,1,2,2,4,4,5,5,6,6,7,7,8,8,10,10,11,11,12,12,14,14,15,15,16,16,18,18,19,19,20,20,21,21,22,22],"right_children":[2,4,6,-1,8,10,12,14,16,-1,18,20,22,-1,24,26,28,-1,30,32,34,36,38,-1,-1,-1,-1,-1,-1,-1,-1,-1,-1,-1,-1,-1,-1,-1,-1],"split_conditions":[-7.9583204E-1,-7.433312E-1,-4.7462344E-1,-4.9221344E0,-4.7050583E-1,-6.6047394E-1,3.6934358E-1,-7.326456E-1,-1.2774379E0,-1.1132368E1,-1.1703881E0,-7.1729526E-2,6.1382395E-1,-1.1732008E0,-1.3551164E0,5.451748E-1,-2.645725E-2,-9.095242E0,-4.6078667E-1,-4.3715024E-1,-1.02672964E-1,1.138968E0,2.598655E-1,1.1400022E1,3.6374454E0,2.0008041E1,3.2858288E1,5.9054995E0,1.4726371E1,-5.6567316E0,-9.035101E-1,-4.742593E0,1.384248E0,2.9592245E0,1.0048442E1,-6.1138854E0,-2.5204356E0,-3.418241E0,9.1890365E-1],"split_indices":[1,5,6,0,3,7,1,4,1,0,3,6,3,0,1,3,5,0,7,3,0,5,6,0,0,0,0,0,0,0,0,0,0,0,0,0,0,0,0],"split_type":[0,0,0,0,0,0,0,0,0,0,0,0,0,0,0,0,0,0,0,0,0,0,0,0,0,0,0,0,0,0,0,0,0,0,0,0,0,0,0],"sum_hessian":[2.73E2,7.5E1,1.98E2,1.3E1,6.2E1,7.2E1,1.26E2,2.3E1,3.9E1,3.5E1,3.7E1,6.3E1,6.3E1,8E0,1.5E1,1.8E1,2.1E1,1E1,2.7E1,2.9E1,3.4E1,4.2E1,2.1E1,8E0,7E0,1E1,8E0,1.2E1,9E0,2E1,7E0,9E0,2E1,1.3E1,2.1E1,3.2E1,1E1,8E0,1.3E1],"tree_param":{"num_deleted":"0","num_feature":"8","num_nodes":"39","size_leaf_vector":"1"}},{"base_weights":[9.049317E0,2.9936707E2,-1.6081609E2,-6.2848816E1,5.0916687E2,-3.187571E2,-2.304341E1,-8.819544E0,9.4607E1,2.122892E1,3.340259E2,-3.5470346E2,5.8007854E-1,-5.5990482E1,7.996765E0,-5.8035216E0,2.4674066E2,1.27327515E2,4.8795978E2,-1.1576976E1,-2.4560733E2,-1.5213989E1,-1.8395763E2,3.5998504E0,8.2939205E0,7.012997E-2,7.410283E0,7.814872E0,1.627706E1,-7.8472605E0,-3.7686682E0,-3.4490042E0,8.58287E-1,-6.327979E0,-1.9559455E0],"categories":[],"categories_nodes":[],"categories_segments":[],"categories_sizes":[],"default_left":[0,0,0,0,0,0,0,0,0,0,0,0,0,0,0,0,0,0,0,0,0,0,0,0,0,0,0,0,0,0,0,0,0,0,0],"id":26,"left_children":[1,3,5,7,9,11,13,-1,15,-1,17,19,-1,21,-1,-1,23,25,27,-1,29,31,33,-1,-1,-1,-1,-1,-1,-1,-1,-1,-1,-1,-1],"loss_changes":[1.2426194E7,7.099333E6,3.452488E6,1.5404186E6,2.83987E6,9.146445E5,9.471183E5,0E0,1.1606831E6,0E0,1.1787665E6,5.28293E5,0E0,4.094273E5,0E0,0E0,7.862325E4,3.480949E5,3.708265E5,0E0,1.3239812E5,3.4495734E5,1.01486E5,0E0,0E0,0E0,0E0,0E0,0E0,0E0,0E0,0E0,0E0,0E0,0E0],"parents":[2147483647,0,0,1,1,2,2,3,3,4,4,5,5,6,6,8,8,10,10,11,11,13,13,16,16,17,17,18,18,20,20,21,21,22,22],"right_children":[2,4,6,8,10,12,14,-1,16,-1,18,20,-1,22,-1,-1,24,26,28,-1,30,32,34,-1,-1,-1,-1,-1,-1,-1,-1,-1,-1,-1,-1],"split_conditions":[-4.6181503E-1,-4.836692E-1,-4.318238E-1,-8.1181943E-1,-1.2696701E0,1.2086359E0,1.2848264E0,-8.819544E0,-3.969271E-1,2.122892E1,9.662674E-2,-6.936227E-1,5.8007854E-1,1.1771986E0,7.996765E0,-5.8035216E0,-5.68438E-1,1.9391751E-1,3.8164454E-3,-1.1576976E1,3.1272098E-1,-8.500469E-1,1.0065582E-1,3.5998504E0,8.2939205E0,7.012997E-2,7.410283E0,7.814872E0,1.627706E1,-7.8472605E0,-3.7686682E0,-3.4490042E0,8.58287E-1,-6.327979E0,-1.9559455E0],"split_indices":[1,5,6,5,1,0,0,0,0,0,0,6,0,1,0,0,6,4,7,0,2,0,2,0,0,0,0,0,0,0,0,0,0,0,0],"split_type":[0,0,0,0,0,0,0,0,0,0,0,0,0,0,0,0,0,0,0,0,0,0,0,0,0,0,0,0,0,0,0,0,0,0,0],"sum_hessian":[2.5E2,9.2E1,1.58E2,3.4E1,5.8E1,7.3E1,8.5E1,1.2E1,2.2E1,2E1,3.8E1,6.6E1,7E0,7.8E1,7E0,7E0,1.5E1,1.7E1,2.1E1,3.5E1,3.1E1,6E1,1.8E1,7E0,8E0,1E1,7E0,1E1,1.1E1,1.9E1,1.2E1,1.7E1,4.3E1,1.1E1,7E0],"tree_param":{"num_deleted":"0","num_feature":"8","num_nodes":"35","size_leaf_vector":"1"}},{"base_weights":[-6.665225E0,3.4867877E2,-1.1154457E2,-4.221107E0,6.3942633E2,-3.1697025E2,-4.334554E0,-1.7548242E2,1.6732162E2,3.8712994E2,8.990642E2,-3.4675906E2,-1.8320787E0,-4.8971085E1,3.4186945E2,-6.912497E0,-1.7089438E0,6.862747E0,1.3577535E0,5.2154784E0,1.6268366E1,1.6816477E1,2.8197163E1,-3.8745807E2,-2.2122504E2,-9.0818306E1,1.8706978E2,3.0323508E0,1.4504367E1,-6.5854635E0,-1.0823926E1,-8.031696E0,-1.9989458E0,-7.206648E-1,-5.329476E0,7.5874505E0,1.0745269E0],"categories":[],"categories_nodes":[],"categories_segments":[],"categories_sizes":[],"default_left":[0,0,0,0,0,0,0,0,0,0,0,0,0,0,0,0,0,0,0,0,0,0,0,0,0,0,0,0,0,0,0,0,0,0,0,0,0],"id":27,"left_children":[1,3,5,7,9,11,13,15,17,19,21,23,-1,25,27,-1,-1,-1,-1,-1,-1,-1,-1,29,31,33,35,-1,-1,-1,-1,-1,-1,-1,-1,-1,-1],"loss_changes":[1.0138587E7,6.3641965E6,4.623601E6,8.8134244E5,1.879138E6,5.056275E5,2.1647568E6,1.2888078E5,1.5030975E5,7.117125E5,3.8202E4,2.412685E5,0E0,1.2418185E6,7.018454E5,0E0,0E0,0E0,0E0,0E0,0E0,0E0,0E0,6.01455E4,1.9914556E5,7.499471E5,2.7257562E5,0E0,0E0,0E0,0E0,0E0,0E0,0E0,0E0,0E0,0E0],"parents":[2147483647,0,0,1,1,2,2,3,3,4,4,5,5,6,6,7,7,8,8,9,9,10,10,11,11,13,13,14,14,23,23,24,24,25,25,26,26],"right_children":[2,4,6,8,10,12,14,16,18,20,22,24,-1,26,28,-1,-1,-1,-1,-1,-1,-1,-1,30,32,34,36,-1,-1,-1,-1,-1,-1,-1,-1,-1,-1],"split_conditions":[-8.968139E-1,-3.5380593E-1,-5.508872E-1,-2.6370135E-1,1.972781E-1,1.2086359E0,1.2086359E0,-6.70822E-1,-5.254919E-1,1.3035392E0,3.2867652E-1,-6.8589056E-1,-1.8320787E0,1.1515317E0,-7.696743E-2,-6.912497E0,-1.7089438E0,6.862747E0,1.3577535E0,5.2154784E0,1.6268366E1,1.6816477E1,2.8197163E1,-9.543114E-1,-4.12709E-1,7.2666407E-1,8.4318167E-1,3.0323508E0,1.4504367E1,-6.5854635E0,-1.0823926E1,-8.031696E0,-1.9989458E0,-7.206648E-1,-5.329476E0,7.5874505E0,1.0745269E0],"split_indices":[1,5,6,4,0,0,0,5,7,5,3,6,0,3,3,0,0,0,0,0,0,0,0,4,3,1,1,0,0,0,0,0,0,0,0,0,0],"split_type":[0,0,0,0,0,0,0,0,0,0,0,0,0,0,0,0,0,0,0,0,0,0,0,0,0,0,0,0,0,0,0,0,0,0,0,0,0],"sum_hessian":[2.7E2,6.1E1,2.09E2,2.8E1,3.3E1,7.1E1,1.38E2,1.4E1,1.4E1,1.8E1,1.5E1,6.3E1,8E0,1.23E2,1.5E1,7E0,7E0,7E0,7E0,1.1E1,7E0,8E0,7E0,4.6E1,1.7E1,1.05E2,1.8E1,8E0,7E0,9E0,3.7E1,1E1,7E0,6.8E1,3.7E1,1E1,8E0],"tree_param":{"num_deleted":"0","num_feature":"8","num_nodes":"37","size_leaf_vector":"1"}},{"base_weights":[1.8994696E1,2.390613E2,-1.7425418E2,-3.312833E2,3.2274976E2,-3.3096686E2,-2.7489843E1,-1.0677259E1,-5.0994782E0,2.498414E2,2.050168E1,-3.9761288E2,-2.5105629E2,-7.3448456E1,5.356285E0,1.3647325E2,5.0603906E2,-7.2863755E0,-1.1463391E1,-2.7668805E2,-3.8325515E0,2.642432E0,-1.18961426E2,1.9044448E0,7.6595216E0,4.0506763E0,1.6424118E1,-4.8276634E0,-7.8563747E0,-2.005475E0,-5.725419E0],"categories":[],"categories_nodes":[],"categories_segments":[],"categories_sizes":[],"default_left":[0,0,0,0,0,0,0,0,0,0,0,0,0,0,0,0,0,0,0,0,0,0,0,0,0,0,0,0,0,0,0],"id":28,"left_children":[1,3,5,7,9,11,13,-1,-1,15,-1,17,19,21,-1,23,25,-1,-1,27,-1,-1,29,-1,-1,-1,-1,-1,-1,-1,-1],"loss_changes":[1.1736753E7,6.2642555E6,3.371877E6,9.7744375E4,3.591644E6,2.783035E5,8.35692E5,0E0,0E0,2.80636E6,0E0,5.47125E4,5.35385E4,5.2761975E5,0E0,6.746706E5,1.1764625E6,0E0,0E0,2.524125E3,0E0,0E0,2.0287656E5,0E0,0E0,0E0,0E0,0E0,0E0,0E0,0E0],"parents":[2147483647,0,0,1,1,2,2,3,3,4,4,5,5,6,6,9,9,11,11,12,12,13,13,15,15,16,16,19,19,22,22],"right_children":[2,4,6,8,10,12,14,-1,-1,16,-1,18,20,22,-1,24,26,-1,-1,28,-1,-1,30,-1,-1,-1,-1,-1,-1,-1,-1],"split_conditions":[-1.9711457E-1,-7.623131E-1,-3.8628334E-1,-8.371816E-1,1.0714993E0,-6.8372035E-1,1.2492967E0,-1.0677259E1,-5.0994782E0,6.945259E-1,2.050168E1,2.9943302E-1,6.8714774E-1,2.295225E-1,5.356285E0,8.3625823E-1,-6.02947E-1,-7.2863755E0,-1.1463391E1,5.8630068E-2,-3.8325515E0,2.642432E0,1.4646683E0,1.9044448E0,7.6595216E0,4.0506763E0,1.6424118E1,-4.8276634E0,-7.8563747E0,-2.005475E0,-5.725419E0],"split_indices":[1,5,7,6,7,5,3,0,0,0,0,1,3,1,0,3,2,0,0,1,0,0,1,0,0,0,0,0,0,0,0],"split_type":[0,0,0,0,0,0,0,0,0,0,0,0,0,0,0,0,0,0,0,0,0,0,0,0,0,0,0,0,0,0,0],"sum_hessian":[2.74E2,1.28E2,1.46E2,1.6E1,1.12E2,7E1,7.6E1,9E0,7E0,9.8E1,1.4E1,3.6E1,3.4E1,6.4E1,1.2E1,6.9E1,2.9E1,1.1E1,2.5E1,2.6E1,8E0,1.3E1,5.1E1,5E1,1.9E1,8E0,2.1E1,7E0,1.9E1,3.7E1,1.4E1],"tree_param":{"num_deleted":"0","num_feature":"8","num_nodes":"31","size_leaf_vector":"1"}},{"base_weights":[-3.801332E0,-3.05004E2,1.3312817E2,-3.6325323E2,-1.4764995E2,4.975951E2,6.6353188E0,-3.8534598E2,-4.1314793E0,-8.111541E1,-6.9257092E0,3.328167E2,8.075744E2,1.17108864E2,-9.4008995E1,-1.0570732E1,-5.815416E0,-4.2625914E0,1.0545344E-2,1.3841548E2,4.8923798E2,1.1112511E1,2.8857468E1,-7.9725204E1,1.8546242E2,-1.466512E2,1.08578E1,-1.8865377E-1,7.03937E0,1.5464136E1,7.24969E0,-4.2237493E-1,-3.262711E0,2.3168683E0,9.675097E0,-4.804222E0,2.0465398E0,4.012046E0,-1.496149E0],"categories":[],"categories_nodes":[],"categories_segments":[],"categories_sizes":[],"default_left":[0,0,0,0,0,0,0,0,0,0,0,0,0,0,0,0,0,0,0,0,0,0,0,0,0,0,0,0,0,0,0,0,0,0,0,0,0,0,0],"id":29,"left_children":[1,3,5,7,9,11,13,15,-1,17,-1,19,21,23,25,-1,-1,-1,-1,27,29,-1,-1,31,33,35,37,-1,-1,-1,-1,-1,-1,-1,-1,-1,-1,-1,-1],"loss_changes":[1.1877498E7,7.712825E5,9.124984E6,2.34459E5,1.8037612E5,2.3362E6,1.6565522E6,8.1784E4,0E0,1.19744E5,0E0,9.96579E5,1.447879E6,9.700418E5,4.3218506E5,0E0,0E0,0E0,0E0,3.2432772E5,2.44359E5,0E0,0E0,5.2125766E4,9.1256025E5,4.4321625E5,2.697638E5,0E0,0E0,0E0,0E0,0E0,0E0,0E0,0E0,0E0,0E0,0E0,0E0],"parents":[2147483647,0,0,1,1,2,2,3,3,4,4,5,5,6,6,7,7,9,9,11,11,12,12,13,13,14,14,19,19,20,20,23,23,24,24,25,25,26,26],"right_children":[2,4,6,8,10,12,14,16,-1,18,-1,20,22,24,26,-1,-1,-1,-1,28,30,-1,-1,32,34,36,38,-1,-1,-1,-1,-1,-1,-1,-1,-1,-1,-1,-1],"split_conditions":[-5.383457E-1,-6.498051E-1,-7.9583204E-1,1.1013844E0,1.5184411E-1,6.8714774E-1,2.52826E-1,-6.480568E-1,-4.1314793E0,-1.524979E-1,-6.9257092E0,-1.7848104E-1,5.702201E-1,-6.507472E-1,3.955763E-1,-1.0570732E1,-5.815416E0,-4.2625914E0,1.0545344E-2,-3.1517914E-1,-1.1609204E0,1.1112511E1,2.8857468E1,-4.15208E-1,4.9161765E-1,1.2492967E0,5.3246814E-1,-1.8865377E-1,7.03937E0,1.5464136E1,7.24969E0,-4.2237493E-1,-3.262711E0,2.3168683E0,9.675097E0,-4.804222E0,2.0465398E0,4.012046E0,-1.496149E0],"split_indices":[6,7,1,0,1,3,1,5,0,0,0,4,7,0,0,0,0,0,0,0,1,0,0,1,3,3,1,0,0,0,0,0,0,0,0,0,0,0,0],"split_type":[0,0,0,0,0,0,0,0,0,0,0,0,0,0,0,0,0,0,0,0,0,0,0,0,0,0,0,0,0,0,0,0,0,0,0,0,0,0,0],"sum_hessian":[2.86E2,8.9E1,1.97E2,6.4E1,2.5E1,5E1,1.47E2,5.7E1,7E0,1.7E1,8E0,3.4E1,1.6E1,7E1,7.7E1,5E1,7E0,8E0,9E0,1.6E1,1.8E1,8E0,8E0,1.8E1,5.2E1,5.1E1,2.6E1,8E0,8E0,1.1E1,7E0,8E0,1E1,3.5E1,1.7E1,4.4E1,7E0,8E0,1.8E1],"tree_param":{"num_deleted":"0","num_feature":"8","num_nodes":"39","size_leaf_vector":"1"}},{"base_weights":[-3.356701E1,2.409238E2,-1.5663652E2,1.0250214E2,6.5152954E2,-3.2925592E2,-3.475024E1,-1.7647368E2,2.166066E2,4.8348434E2,2.3193869E1,-1.0847564E1,-2.7404044E2,-1.2462604E2,1.60515E2,-8.148879E0,-2.8438383E-1,-7.9931325E-1,2.6679156E2,6.052664E0,1.7700893E1,-1.8746732E2,-9.622427E0,-2.6936893E1,-2.0000789E2,-2.8778028E0,3.115274E2,5.5430512E0,1.2088122E1,-6.799157E0,-1.6722624E0,-3.2403529E0,1.0543574E0,-8.777087E0,-3.688814E0,1.0838265E1,1.4572015E0],"categories":[],"categories_nodes":[],"categories_segments":[],"categories_sizes":[],"default_left":[0,0,0,0,0,0,0,0,0,0,0,0,0,0,0,0,0,0,0,0,0,0,0,0,0,0,0,0,0,0,0,0,0,0,0,0,0],"id":30,"left_children":[1,3,5,7,9,11,13,15,17,19,-1,-1,21,23,25,-1,-1,-1,27,-1,-1,29,-1,31,33,-1,35,-1,-1,-1,-1,-1,-1,-1,-1,-1,-1],"loss_changes":[9.597887E6,4.934849E6,4.112385E6,2.1709955E6,4.35812E5,2.65509E5,2.05576E6,4.4221306E5,6.0340025E5,5.7133075E5,0E0,0E0,3.50683E5,5.837315E5,1.5447494E6,0E0,0E0,0E0,3.32311E5,0E0,0E0,2.4167319E5,0E0,2.3889581E5,3.1254862E5,0E0,6.04122E5,0E0,0E0,0E0,0E0,0E0,0E0,0E0,0E0,0E0,0E0],"parents":[2147483647,0,0,1,1,2,2,3,3,4,4,5,5,6,6,7,7,8,8,9,9,12,12,13,13,14,14,18,18,21,21,23,23,24,24,26,26],"right_children":[2,4,6,8,10,12,14,16,18,20,-1,-1,22,24,26,-1,-1,-1,28,-1,-1,30,-1,32,34,-1,36,-1,-1,-1,-1,-1,-1,-1,-1,-1,-1],"split_conditions":[-4.6181503E-1,4.4470564E-1,-5.366598E-1,-6.4523876E-1,3.955763E-1,-7.7685034E-1,4.4273514E-1,-6.630926E-2,-1.3414769E0,1.0055748E-1,2.3193869E1,-1.0847564E1,6.722892E-1,5.051026E-1,-1.524979E-1,-8.148879E0,-2.8438383E-1,-7.9931325E-1,1.3244131E0,6.052664E0,1.7700893E1,4.9161765E-1,-9.622427E0,-2.0707627E-1,-1.2192706E0,-2.8778028E0,1.1072881E0,5.5430512E0,1.2088122E1,-6.799157E0,-1.6722624E0,-3.2403529E0,1.0543574E0,-8.777087E0,-3.688814E0,1.0838265E1,1.4572015E0],"split_indices":[1,6,5,6,0,6,3,3,3,3,0,0,1,1,0,0,0,0,4,0,0,3,0,6,3,0,1,0,0,0,0,0,0,0,0,0,0],"split_type":[0,0,0,0,0,0,0,0,0,0,0,0,0,0,0,0,0,0,0,0,0,0,0,0,0,0,0,0,0,0,0,0,0,0,0,0,0],"sum_hessian":[2.82E2,8.7E1,1.95E2,6.6E1,2.1E1,8E1,1.15E2,1.9E1,4.7E1,1.4E1,7E0,2.9E1,5.1E1,7.9E1,3.6E1,1E1,9E0,8E0,3.9E1,7E0,7E0,2.8E1,2.3E1,3.5E1,4.4E1,1.3E1,2.3E1,3.2E1,7E0,1.7E1,1.1E1,1.4E1,2.1E1,1.2E1,3.2E1,1.6E1,7E0],"tree_param":{"num_deleted":"0","num_feature":"8","num_nodes":"37","size_leaf_vector":"1"}},{"base_weights":[1.0705603E1,-2.848635E2,1.307248E2,-3.9719168E2,-1.4278087E2,3.5940442E2,-3.9387398E1,-1.1472789E1,-8.290479E0,-2.1831903E1,-7.249611E0,6.0764454E1,4.747935E2,-8.6594284E1,8.467146E0,-3.110873E0,1.3797325E0,-2.5771532E0,1.4647122E2,2.785912E2,6.551693E2,-1.8243202E2,-3.351141E0,1.674431E0,5.334607E0,-2.592344E-1,9.611676E0,1.1497488E1,2.3696928E1,-8.334543E0,-3.5613663E0,-4.6137915E0,1.4597903E0],"categories":[],"categories_nodes":[],"categories_segments":[],"categories_sizes":[],"default_left":[0,0,0,0,0,0,0,0,0,0,0,0,0,0,0,0,0,0,0,0,0,0,0,0,0,0,0,0,0,0,0,0,0],"id":31,"left_children":[1,3,5,7,9,11,13,-1,-1,15,-1,17,19,21,-1,-1,-1,-1,23,25,27,29,31,-1,-1,-1,-1,-1,-1,-1,-1,-1,-1],"loss_changes":[9.579736E6,1.1881595E6,7.483185E6,2.712E3,5.76956E5,2.796852E6,1.9276182E6,0E0,0E0,1.5059731E5,0E0,3.4170834E5,1.905494E6,7.891942E5,0E0,0E0,0E0,0E0,6.2449562E4,7.672175E5,1.220829E6,2.4701725E5,5.607129E5,0E0,0E0,0E0,0E0,0E0,0E0,0E0,0E0,0E0,0E0],"parents":[2147483647,0,0,1,1,2,2,3,3,4,4,5,5,6,6,9,9,11,11,12,12,13,13,18,18,19,19,20,20,21,21,22,22],"right_children":[2,4,6,8,10,12,14,-1,-1,16,-1,18,20,22,-1,-1,-1,-1,24,26,28,30,32,-1,-1,-1,-1,-1,-1,-1,-1,-1,-1],"split_conditions":[-6.261739E-1,-7.5991476E-1,-3.2199395E-1,-8.263856E-1,-5.788749E-2,-6.739242E-1,1.067699E0,-1.1472789E1,-8.290479E0,-3.7335962E-1,-7.249611E0,-1.5858895E0,8.754509E-2,6.258524E-2,8.467146E0,-3.110873E0,1.3797325E0,-2.5771532E0,3.1989884E-1,-6.507472E-1,6.4678854E-1,-1.1988214E0,-8.500469E-1,1.674431E0,5.334607E0,-2.592344E-1,9.611676E0,1.1497488E1,2.3696928E1,-8.334543E0,-3.5613663E0,-4.6137915E0,1.4597903E0],"split_indices":[5,6,1,6,1,3,0,0,0,0,0,3,7,3,0,0,0,0,2,0,2,0,0,0,0,0,0,0,0,0,0,0,0],"split_type":[0,0,0,0,0,0,0,0,0,0,0,0,0,0,0,0,0,0,0,0,0,0,0,0,0,0,0,0,0,0,0,0,0],"sum_hessian":[2.68E2,7.7E1,1.91E2,4.2E1,3.5E1,8.1E1,1.1E2,2.5E1,1.7E1,1.9E1,1.6E1,2.3E1,5.8E1,9.8E1,1.2E1,8E0,1.1E1,8E0,1.5E1,2.9E1,2.9E1,4.5E1,5.3E1,7E0,8E0,7E0,2.2E1,1.7E1,1.2E1,1E1,3.5E1,1.3E1,4E1],"tree_param":{"num_deleted":"0","num_feature":"8","num_nodes":"33","size_leaf_vector":"1"}},{"base_weights":[-7.6123757E0,-2.4801112E2,1.485524E2,-1.2524659E2,-2.970859E2,3.2516666E2,-2.7742971E1,-2.4781532E2,-2.7057714E1,-3.5974216E2,-2.1051323E2,2.0534912E2,6.141002E2,-1.5386249E2,1.0782077E2,-8.192024E0,-3.9831278E0,-2.718816E0,2.0495694E0,-1.0253189E1,-6.297518E0,-1.5269653E2,-9.054766E0,2.8727919E1,3.061881E2,1.9276585E1,9.385072E0,-7.988056E1,-2.3813239E2,-6.2564697E0,2.8265988E2,-6.2063217E0,-2.745868E0,-3.675398E0,5.4871755E0,9.982371E0,4.0917172E0,-3.5105617E0,-8.1955796E-1,-7.6631184E0,-3.490342E0,3.0911674E0,-2.2605362E0,1.8692374E0,1.2120691E1],"categories":[],"categories_nodes":[],"categories_segments":[],"categories_sizes":[],"default_left":[0,0,0,0,0,0,0,0,0,0,0,0,0,0,0,0,0,0,0,0,0,0,0,0,0,0,0,0,0,0,0,0,0,0,0,0,0,0,0,0,0,0,0,0,0],"id":32,"left_children":[1,3,5,7,9,11,13,15,17,19,21,23,25,27,29,-1,-1,-1,-1,-1,-1,31,-1,33,35,-1,-1,37,39,41,43,-1,-1,-1,-1,-1,-1,-1,-1,-1,-1,-1,-1,-1,-1],"loss_changes":[1.0773803E7,6.435755E5,5.426733E6,4.0248075E5,3.58215E5,2.885774E6,1.5211464E6,4.5632188E4,1.6961947E5,7.55395E4,2.2833425E5,1.113253E6,5.14351E5,2.677625E5,8.5941056E5,0E0,0E0,0E0,0E0,0E0,0E0,8.403231E4,0E0,7.6221656E5,3.8928375E5,0E0,0E0,6.417033E4,8.0743125E4,2.7856012E5,6.1334275E5,0E0,0E0,0E0,0E0,0E0,0E0,0E0,0E0,0E0,0E0,0E0,0E0,0E0,0E0],"parents":[2147483647,0,0,1,1,2,2,3,3,4,4,5,5,6,6,7,7,8,8,9,9,10,10,11,11,12,12,13,13,14,14,21,21,23,23,24,24,27,27,28,28,29,29,30,30],"right_children":[2,4,6,8,10,12,14,16,18,20,22,24,26,28,30,-1,-1,-1,-1,-1,-1,32,-1,34,36,-1,-1,38,40,42,44,-1,-1,-1,-1,-1,-1,-1,-1,-1,-1,-1,-1,-1,-1],"split_conditions":[-5.022079E-1,-6.4483774E-1,-1.433337E-1,-8.104753E-1,-1.3100444E-1,6.4470094E-1,1.5074354E-1,-1.3100444E-1,-6.4523876E-1,-6.2237525E-1,1.0684489E0,-6.117296E-1,-7.4145716E-1,8.0434245E-1,4.9292842E-1,-8.192024E0,-3.9831278E0,-2.718816E0,2.0495694E0,-1.0253189E1,-6.297518E0,-7.494133E-1,-9.054766E0,-2.0610534E-1,-6.0940397E-1,1.9276585E1,9.385072E0,9.7847775E-2,-8.500469E-1,5.3246814E-1,1.0105342E0,-6.2063217E0,-2.745868E0,-3.675398E0,5.4871755E0,9.982371E0,4.0917172E0,-3.5105617E0,-8.1955796E-1,-7.6631184E0,-3.490342E0,3.0911674E0,-2.2605362E0,1.8692374E0,1.2120691E1],"split_indices":[6,1,1,5,2,0,0,2,6,6,1,0,1,1,6,0,0,0,0,0,0,7,0,5,1,0,0,6,0,1,0,0,0,0,0,0,0,0,0,0,0,0,0,0,0],"split_type":[0,0,0,0,0,0,0,0,0,0,0,0,0,0,0,0,0,0,0,0,0,0,0,0,0,0,0,0,0,0,0,0,0,0,0,0,0,0,0,0,0,0,0,0,0],"sum_hessian":[2.85E2,1.12E2,1.73E2,3.3E1,7.9E1,8.6E1,8.7E1,1.4E1,1.9E1,4.4E1,3.5E1,6.2E1,2.4E1,4.5E1,4.2E1,7E0,7E0,1.1E1,8E0,3.3E1,1.1E1,2.6E1,9E0,2.3E1,3.9E1,1.5E1,9E0,2.5E1,2E1,2.6E1,1.6E1,8E0,1.8E1,1.2E1,1.1E1,2.5E1,1.4E1,1.1E1,1.4E1,1.2E1,8E0,1E1,1.6E1,8E0,8E0],"tree_param":{"num_deleted":"0","num_feature":"8","num_nodes":"45","size_leaf_vector":"1"}},{"base_weights":[3.369412E1,2.878858E2,-1.2247859E2,9.549826E1,5.8793536E2,-3.0724002E2,-1.1517028E1,-7.861328E0,1.6204463E2,4.4880316E2,2.4610426E1,-1.0308655E1,-2.196681E2,-6.723772E1,2.3048772E2,-1.876766E1,2.3137236E2,2.9682568E2,6.01256E2,-2.6660513E2,-7.318404E-1,7.320123E0,-1.5439615E2,2.196022E0,1.2010347E1,1.0462139E0,-2.352762E0,2.2068207E0,8.350453E0,4.187818E0,9.68132E0,8.872474E0,2.0667194E1,-4.677123E0,-8.204453E0,-3.3459306E0,2.4680302E0,-6.820499E0,-3.2957318E0],"categories":[],"categories_nodes":[],"categories_segments":[],"categories_sizes":[],"default_left":[0,0,0,0,0,0,0,0,0,0,0,0,0,0,0,0,0,0,0,0,0,0,0,0,0,0,0,0,0,0,0,0,0,0,0,0,0,0,0],"id":33,"left_children":[1,3,5,7,9,11,13,-1,15,17,-1,-1,19,21,23,25,27,29,31,33,-1,35,37,-1,-1,-1,-1,-1,-1,-1,-1,-1,-1,-1,-1,-1,-1,-1,-1],"loss_changes":[1.1269739E7,6.178238E6,3.6047115E6,1.8120795E6,1.631306E6,4.116795E5,1.512296E6,0E0,7.313899E5,5.629525E5,0E0,0E0,3.0754025E5,5.924796E5,6.635009E5,7.445393E4,5.127975E5,1.20113E5,4.715715E5,5.8850375E4,0E0,5.9846356E5,9.45475E4,0E0,0E0,0E0,0E0,0E0,0E0,0E0,0E0,0E0,0E0,0E0,0E0,0E0,0E0,0E0,0E0],"parents":[2147483647,0,0,1,1,2,2,3,3,4,4,5,5,6,6,8,8,9,9,12,12,13,13,14,14,15,15,16,16,17,17,18,18,19,19,21,21,22,22],"right_children":[2,4,6,8,10,12,14,-1,16,18,-1,-1,20,22,24,26,28,30,32,34,-1,36,38,-1,-1,-1,-1,-1,-1,-1,-1,-1,-1,-1,-1,-1,-1,-1,-1],"split_conditions":[-4.6181503E-1,5.555522E-3,-5.685562E-1,-8.1138325E-1,9.159359E-1,-7.185681E-1,1.067699E0,-7.861328E0,-3.517976E-1,1.3011894E-1,2.4610426E1,-1.0308655E1,8.938256E-1,7.0336056E-1,-1.62062E-1,-8.744763E-1,-4.660383E-1,5.4266703E-1,5.412118E-1,4.9362895E-1,-7.318404E-1,-2.174247E-1,-9.375008E-1,2.196022E0,1.2010347E1,1.0462139E0,-2.352762E0,2.2068207E0,8.350453E0,4.187818E0,9.68132E0,8.872474E0,2.0667194E1,-4.677123E0,-8.204453E0,-3.3459306E0,2.4680302E0,-6.820499E0,-3.2957318E0],"split_indices":[1,5,5,6,0,6,0,0,0,2,0,0,0,1,5,1,2,5,7,1,0,6,0,0,0,0,0,0,0,0,0,0,0,0,0,0,0,0,0],"split_type":[0,0,0,0,0,0,0,0,0,0,0,0,0,0,0,0,0,0,0,0,0,0,0,0,0,0,0,0,0,0,0,0,0,0,0,0,0,0,0],"sum_hessian":[2.82E2,1.07E2,1.75E2,6.6E1,4.1E1,6.5E1,1.1E2,9E0,5.7E1,3.1E1,1E1,3.1E1,3.4E1,9E1,2E1,1.6E1,4.1E1,1.7E1,1.4E1,2.7E1,7E0,4.9E1,4.1E1,1.3E1,7E0,9E0,7E0,1.6E1,2.5E1,7E0,1E1,7E0,7E0,1.1E1,1.6E1,1.9E1,3E1,7E0,3.4E1],"tree_param":{"num_deleted":"0","num_feature":"8","num_nodes":"39","size_leaf_vector":"1"}},{"base_weights":[7.69543E-1,-2.9103348E2,9.243138E1,-2.2513702E0,-3.2093683E2,4.1816867E2,6.102942E0,-9.21525E0,-4.567981E0,3.118295E0,4.8924014E2,-1.3763799E2,9.379632E1,6.395905E0,5.607849E2,-7.498633E1,-2.297172E2,4.478733E1,3.32979E2,1.8670238E1,7.2603445E0,-3.5446107E0,2.3141289E-1,-7.1128836E0,-3.5275817E0,3.547208E0,-1.5433224E0,4.1609592E0,1.181235E1],"categories":[],"categories_nodes":[],"categories_segments":[],"categories_sizes":[],"default_left":[0,0,0,0,0,0,0,0,0,0,0,0,0,0,0,0,0,0,0,0,0,0,0,0,0,0,0,0,0],"id":34,"left_children":[1,3,5,-1,7,9,11,-1,-1,-1,13,15,17,-1,19,21,23,25,27,-1,-1,-1,-1,-1,-1,-1,-1,-1,-1],"loss_changes":[6.713701E6,3.404365E5,5.368443E6,0E0,1.731455E5,7.922515E5,1.9288894E6,0E0,0E0,0E0,4.24362E5,3.173715E5,1.0986862E6,0E0,8.35791E5,1.8311831E5,5.4742375E4,7.594019E5,2.56786E5,0E0,0E0,0E0,0E0,0E0,0E0,0E0,0E0,0E0,0E0],"parents":[2147483647,0,0,1,1,2,2,4,4,5,5,6,6,10,10,11,11,12,12,14,14,15,15,16,16,17,17,18,18],"right_children":[2,4,6,-1,8,10,12,-1,-1,-1,14,16,18,-1,20,22,24,26,28,-1,-1,-1,-1,-1,-1,-1,-1,-1,-1],"split_conditions":[-6.5334463E-1,-1.1609204E0,-8.502069E-1,-2.2513702E0,1.4203855E0,-4.8506516E-1,-2.6606143E-1,-9.21525E0,-4.567981E0,3.118295E0,-1.0917442E0,4.0818274E-1,9.5055044E-1,6.395905E0,5.0424963E-1,2.9592645E-1,2.8774637E-1,4.2371842E-1,-5.109798E-1,1.8670238E1,7.2603445E0,-3.5446107E0,2.3141289E-1,-7.1128836E0,-3.5275817E0,3.547208E0,-1.5433224E0,4.1609592E0,1.181235E1],"split_indices":[6,1,1,0,3,6,3,0,0,0,4,1,0,0,4,0,6,1,4,0,0,0,0,0,0,0,0,0,0],"split_type":[0,0,0,0,0,0,0,0,0,0,0,0,0,0,0,0,0,0,0,0,0,0,0,0,0,0,0,0,0],"sum_hessian":[2.49E2,5.9E1,1.9E2,8E0,5.1E1,3.9E1,1.51E2,4.1E1,1E1,8E0,3.1E1,5.7E1,9.4E1,8E0,2.3E1,3.5E1,2.2E1,7.9E1,1.5E1,1.4E1,9E0,2E1,1.5E1,1.4E1,8E0,4.2E1,3.7E1,7E0,8E0],"tree_param":{"num_deleted":"0","num_feature":"8","num_nodes":"29","size_leaf_vector":"1"}},{"base_weights":[1.6359663E1,-2.2316786E2,1.4665654E2,1.3417853E0,-2.5353644E2,3.723927E2,-2.4739286E1,-1.8479866E2,-3.3399963E2,2.2399202E2,5.776339E2,-6.8978424E1,9.61739E0,-2.3213542E2,-2.2993165E-1,-9.678459E0,-6.5377693E0,5.2756985E1,3.7804327E2,2.3947763E1,3.6378116E2,-1.1191999E2,6.3354597E0,-7.6241083E0,-3.58277E0,-2.200354E0,7.9271874E0,5.5325775E0,1.28441105E1,6.5072055E0,1.1906123E1,-8.02228E0,-1.6938828E0],"categories":[],"categories_nodes":[],"categories_segments":[],"categories_sizes":[],"default_left":[0,0,0,0,0,0,0,0,0,0,0,0,0,0,0,0,0,0,0,0,0,0,0,0,0,0,0,0,0,0,0,0,0],"id":35,"left_children":[1,3,5,-1,7,9,11,13,15,17,19,21,-1,23,-1,-1,-1,25,27,-1,29,31,-1,-1,-1,-1,-1,-1,-1,-1,-1,-1,-1],"loss_changes":[8.147248E6,7.79564E5,6.547862E6,0E0,3.97339E5,2.094044E6,1.7065155E6,3.8958488E5,1.841275E4,1.14073E6,1.825155E6,1.2013998E6,0E0,1.6788462E5,0E0,0E0,0E0,7.767578E5,3.269675E5,0E0,9.634575E4,6.964617E5,0E0,0E0,0E0,0E0,0E0,0E0,0E0,0E0,0E0,0E0,0E0],"parents":[2147483647,0,0,1,1,2,2,4,4,5,5,6,6,7,7,8,8,9,9,10,10,11,11,13,13,17,17,18,18,20,20,21,21],"right_children":[2,4,6,-1,8,10,12,14,16,18,20,22,-1,24,-1,-1,-1,26,28,-1,30,32,-1,-1,-1,-1,-1,-1,-1,-1,-1,-1,-1],"split_conditions":[-4.906776E-1,-1.3007414E0,-2.0660792E-1,1.3417853E0,3.8487923E-1,4.9161765E-1,1.4448268E0,6.4805716E-1,-6.353335E-1,-1.1641462E-1,-1.1842239E0,1.7074673E0,9.61739E0,-7.2061163E-1,-2.2993165E-1,-9.678459E0,-6.5377693E0,4.4470564E-1,7.663501E-2,2.3947763E1,-1.07379965E-1,-8.843948E-1,6.3354597E0,-7.6241083E0,-3.58277E0,-2.200354E0,7.9271874E0,5.5325775E0,1.28441105E1,6.5072055E0,1.1906123E1,-8.02228E0,-1.6938828E0],"split_indices":[6,1,1,0,1,3,3,2,6,4,1,7,0,5,0,0,0,6,2,0,4,3,0,0,0,0,0,0,0,0,0,0,0],"split_type":[0,0,0,0,0,0,0,0,0,0,0,0,0,0,0,0,0,0,0,0,0,0,0,0,0,0,0,0,0,0,0,0,0],"sum_hessian":[2.59E2,9.1E1,1.68E2,9E0,8.2E1,7.2E1,9.6E1,4.6E1,3.6E1,4.3E1,2.9E1,8.7E1,9E0,3.6E1,1E1,2.3E1,1.3E1,2.1E1,2.2E1,1E1,1.9E1,7.7E1,1E1,2.1E1,1.5E1,1.4E1,7E0,1E1,1.2E1,1E1,9E0,1.4E1,6.3E1],"tree_param":{"num_deleted":"0","num_feature":"8","num_nodes":"33","size_leaf_vector":"1"}},{"base_weights":[6.465555E0,2.253863E2,-1.23852104E2,3.526846E1,4.187302E2,-2.477042E2,-3.917772E1,-6.0070915E0,1.3440532E2,2.5051329E2,7.395069E2,-2.670917E2,-1.932663E0,2.1021908E1,-1.6996472E2,-1.5151457E1,2.7688812E2,4.4379726E-1,3.665315E2,1.2603627E1,2.3244825E1,-2.969926E2,-1.8851123E2,-5.3762005E1,1.2344724E2,-2.098198E2,-1.7106936E0,-3.0624216E0,3.6507378E0,1.1416875E1,3.876147E0,5.4824667E0,1.1162018E1,-5.6710963E0,-9.187422E0,-6.343031E0,-3.0420015E0,-3.173888E0,1.7980123E-1,1.7437769E0,6.930194E0,-3.9452507E0,-6.2692137E0],"categories":[],"categories_nodes":[],"categories_segments":[],"categories_sizes":[],"default_left":[0,0,0,0,0,0,0,0,0,0,0,0,0,0,0,0,0,0,0,0,0,0,0,0,0,0,0,0,0,0,0,0,0,0,0,0,0,0,0,0,0,0,0],"id":36,"left_children":[1,3,5,7,9,11,13,-1,15,17,19,21,-1,23,25,27,29,-1,31,-1,-1,33,35,37,39,41,-1,-1,-1,-1,-1,-1,-1,-1,-1,-1,-1,-1,-1,-1,-1,-1,-1],"loss_changes":[7.416988E6,3.55077E6,1.6996928E6,1.3420155E6,2.404826E6,2.0287675E5,7.7515925E5,0E0,7.926382E5,8.8806225E5,1.83812E5,8.26415E4,0E0,5.275009E5,1.156315E5,3.148506E5,3.2470362E5,0E0,1.1662275E5,0E0,0E0,1.0127425E5,4.5596125E4,1.6419234E5,2.1511447E5,2.3511875E3,0E0,0E0,0E0,0E0,0E0,0E0,0E0,0E0,0E0,0E0,0E0,0E0,0E0,0E0,0E0,0E0,0E0],"parents":[2147483647,0,0,1,1,2,2,3,3,4,4,5,5,6,6,8,8,9,9,10,10,11,11,13,13,14,14,15,15,16,16,18,18,21,21,22,22,23,23,24,24,25,25],"right_children":[2,4,6,8,10,12,14,-1,16,18,20,22,-1,24,26,28,30,-1,32,-1,-1,34,36,38,40,42,-1,-1,-1,-1,-1,-1,-1,-1,-1,-1,-1,-1,-1,-1,-1,-1,-1],"split_conditions":[-4.695829E-1,-2.964494E-1,-5.022079E-1,-7.850619E-1,2.4935038E-1,1.2086359E0,1.0529133E0,-6.0070915E0,-1.7848104E-1,-3.489848E-1,1.962766E-1,-6.0677785E-1,-1.932663E0,3.1017813E-1,2.6559493E-1,-4.3069565E-1,-1.1976867E0,4.4379726E-1,-7.477971E-1,1.2603627E1,2.3244825E1,4.3859318E-1,-2.171789E-1,-2.6606143E-1,1.067699E0,1.2937162E0,-1.7106936E0,-3.0624216E0,3.6507378E0,1.1416875E1,3.876147E0,5.4824667E0,1.1162018E1,-5.6710963E0,-9.187422E0,-6.343031E0,-3.0420015E0,-3.173888E0,1.7980123E-1,1.7437769E0,6.930194E0,-3.9452507E0,-6.2692137E0],"split_indices":[1,6,6,6,2,0,1,0,4,3,0,7,0,4,6,2,1,0,0,0,0,1,3,3,0,1,0,0,0,0,0,0,0,0,0,0,0,0,0,0,0,0,0],"split_type":[0,0,0,0,0,0,0,0,0,0,0,0,0,0,0,0,0,0,0,0,0,0,0,0,0,0,0,0,0,0,0,0,0,0,0,0,0,0,0,0,0,0,0],"sum_hessian":[2.58E2,9.6E1,1.62E2,4.9E1,4.7E1,6.5E1,9.7E1,1.3E1,3.6E1,3.2E1,1.5E1,5.8E1,7E0,6.7E1,3E1,1.8E1,1.8E1,1.1E1,2.1E1,7E0,8E0,4E1,1.8E1,3.9E1,2.8E1,2.1E1,9E0,1.1E1,7E0,7E0,1.1E1,7E0,1.4E1,1.8E1,2.2E1,9E0,9E0,1.8E1,2.1E1,2.1E1,7E0,9E0,1.2E1],"tree_param":{"num_deleted":"0","num_feature":"8","num_nodes":"43","size_leaf_vector":"1"}},{"base_weights":[1.3015321E1,-2.142965E2,1.4241435E2,-9.986154E0,-1.5472198E2,-1.3086049E1,2.5123814E2,-1.8258746E2,6.5916735E-1,-7.339902E1,1.5182626E2,1.4149155E2,5.142672E2,-2.824658E2,-1.4211836E2,-5.39829E0,-3.8408573E1,5.2421987E-2,8.878978E0,-8.80329E0,2.3701518E2,4.355295E0,6.520669E2,-8.657281E0,-5.0632534E0,-4.920951E0,-1.0814668E0,-2.9527538E0,1.5519524E-1,2.2724934E0,-1.6085004E0,3.8913012E0,9.590842E0,9.872976E0,2.0470644E1],"categories":[],"categories_nodes":[],"categories_segments":[],"categories_sizes":[],"default_left":[0,0,0,0,0,0,0,0,0,0,0,0,0,0,0,0,0,0,0,0,0,0,0,0,0,0,0,0,0,0,0,0,0,0,0],"id":37,"left_children":[1,3,5,-1,7,9,11,13,-1,15,17,19,21,23,25,-1,27,-1,-1,29,31,-1,33,-1,-1,-1,-1,-1,-1,-1,-1,-1,-1,-1,-1],"loss_changes":[7.2957595E6,8.3545225E5,2.6769868E6,0E0,3.454365E5,6.676031E5,2.611824E6,1.9833362E5,0E0,2.1947147E5,5.0372122E5,9.63986E5,1.1865725E6,4.587625E3,1.9496288E5,0E0,1.3238619E5,0E0,0E0,1.4095494E5,4.137955E5,0E0,3.812535E5,0E0,0E0,0E0,0E0,0E0,0E0,0E0,0E0,0E0,0E0,0E0,0E0],"parents":[2147483647,0,0,1,1,2,2,4,4,5,5,6,6,7,7,9,9,10,10,11,11,12,12,13,13,14,14,16,16,19,19,20,20,22,22],"right_children":[2,4,6,-1,8,10,12,14,-1,16,18,20,22,24,26,-1,28,-1,-1,30,32,-1,34,-1,-1,-1,-1,-1,-1,-1,-1,-1,-1,-1,-1],"split_conditions":[-5.4345566E-1,-8.2095826E-1,-8.468891E-2,-9.986154E0,9.9347544E-1,9.560016E-1,6.8714774E-1,-1.1103972E0,6.5916735E-1,-1.1814269E0,2.515506E-1,-2.2923155E-1,-8.9018786E-1,-7.055577E-1,-5.8795756E-1,-5.39829E0,-4.8437986E-1,5.2421987E-2,8.878978E0,-4.203897E-1,2.8909418E-1,4.355295E0,5.4083437E-1,-8.657281E0,-5.0632534E0,-4.920951E0,-1.0814668E0,-2.9527538E0,1.5519524E-1,2.2724934E0,-1.6085004E0,3.8913012E0,9.590842E0,9.872976E0,2.0470644E1],"split_indices":[5,6,0,0,0,3,3,2,0,2,4,6,4,5,7,0,4,0,0,6,2,0,0,0,0,0,0,0,0,0,0,0,0,0,0],"split_type":[0,0,0,0,0,0,0,0,0,0,0,0,0,0,0,0,0,0,0,0,0,0,0,0,0,0,0,0,0,0,0,0,0,0,0],"sum_hessian":[2.46E2,8.9E1,1.57E2,2.2E1,6.7E1,6.5E1,9.2E1,5.8E1,9E0,4.8E1,1.7E1,6.6E1,2.6E1,1.5E1,4.3E1,9E0,3.9E1,1E1,7E0,2.6E1,4E1,8E0,1.8E1,8E0,7E0,2.9E1,1.4E1,1.4E1,2.5E1,9E0,1.7E1,2.5E1,1.5E1,7E0,1.1E1],"tree_param":{"num_deleted":"0","num_feature":"8","num_nodes":"35","size_leaf_vector":"1"}},{"base_weights":[-1.0910101E1,1.8781067E2,-1.38261E2,-4.6094463E1,4.020065E2,-1.809846E2,1.7349138E2,-2.1020023E2,5.973328E1,2.4710194E2,6.372136E2,-2.7154004E2,-8.680865E1,-2.040041E0,7.9846344E0,-2.4543529E0,-6.859212E0,-1.947906E1,5.7627134E0,1.4500812E2,1.5362718E1,1.1004714E1,2.2426558E1,-9.561683E0,-2.2674153E2,-2.5034813E2,-3.0772524E1,-4.4181247E0,1.8682573E0,4.8972088E-1,5.795089E0,-4.504856E0,-7.1141086E0,-8.138402E0,-4.325181E0,1.0480704E0,-3.2218654E0],"categories":[],"categories_nodes":[],"categories_segments":[],"categories_sizes":[],"default_left":[0,0,0,0,0,0,0,0,0,0,0,0,0,0,0,0,0,0,0,0,0,0,0,0,0,0,0,0,0,0,0,0,0,0,0,0,0],"id":38,"left_children":[1,3,5,7,9,11,13,15,17,19,21,23,25,-1,-1,-1,-1,27,-1,29,-1,-1,-1,-1,31,33,35,-1,-1,-1,-1,-1,-1,-1,-1,-1,-1],"loss_changes":[7.0613885E6,5.479593E6,2.2956602E6,9.3300394E5,1.919319E6,1.2556495E6,7.164228E5,1.01694E5,4.230363E5,1.1616782E6,6.85597E5,2.35165E5,6.7960494E5,0E0,0E0,0E0,0E0,3.2340453E5,0E0,2.748445E5,0E0,0E0,0E0,0E0,8.58245E4,4.635175E4,3.76797E5,0E0,0E0,0E0,0E0,0E0,0E0,0E0,0E0,0E0,0E0],"parents":[2147483647,0,0,1,1,2,2,3,3,4,4,5,5,6,6,7,7,8,8,9,9,10,10,11,11,12,12,17,17,19,19,24,24,25,25,26,26],"right_children":[2,4,6,8,10,12,14,16,18,20,22,24,26,-1,-1,-1,-1,28,-1,30,-1,-1,-1,-1,32,34,36,-1,-1,-1,-1,-1,-1,-1,-1,-1,-1],"split_conditions":[-3.6233205E-1,-4.1473657E-1,1.1013844E0,-7.623131E-1,5.4083437E-1,-3.8186347E-1,-4.388641E-1,-1.2385988E0,4.488199E-1,1.0537666E0,5.275571E-1,-8.104753E-1,-9.015342E-1,-2.040041E0,7.9846344E0,-2.4543529E0,-6.859212E0,-6.630926E-2,5.7627134E0,-3.1494394E-1,1.5362718E1,1.1004714E1,2.2426558E1,-9.561683E0,4.9362895E-1,-5.4355896E-1,8.4318167E-1,-4.4181247E0,1.8682573E0,4.8972088E-1,5.795089E0,-4.504856E0,-7.1141086E0,-8.138402E0,-4.325181E0,1.0480704E0,-3.2218654E0],"split_indices":[1,5,0,5,0,7,7,1,0,3,2,5,3,0,0,0,0,3,0,3,0,0,0,0,1,0,1,0,0,0,0,0,0,0,0,0,0],"split_type":[0,0,0,0,0,0,0,0,0,0,0,0,0,0,0,0,0,0,0,0,0,0,0,0,0,0,0,0,0,0,0,0,0,0,0,0,0],"sum_hessian":[2.77E2,1.08E2,1.69E2,5.2E1,5.6E1,1.49E2,2E1,2E1,3.2E1,3.5E1,2.1E1,7.5E1,7.4E1,7E0,1.3E1,7E0,1.3E1,2.2E1,1E1,2.8E1,7E0,1.2E1,9E0,2.2E1,5.3E1,1.8E1,5.6E1,8E0,1.4E1,1.1E1,1.7E1,2.6E1,2.7E1,9E0,9E0,3.2E1,2.4E1],"tree_param":{"num_deleted":"0","num_feature":"8","num_nodes":"37","size_leaf_vector":"1"}},{"base_weights":[-1.1403459E1,-2.764304E2,5.9572777E1,-9.211565E0,-2.3274515E2,-2.0083498E2,1.2281437E2,-7.175098E0,-1.565695E2,-2.576826E2,-8.1330475E1,4.615558E1,3.089387E2,-2.2426822E0,-5.6820493E0,-9.328053E0,-2.0795894E2,-3.5844648E0,-4.1129652E-1,-3.4893303E1,1.3758783E2,1.3656853E2,6.077874E2,-6.1494603E0,-3.5422585E0,-2.004152E0,2.1033268E0,-1.17464E0,5.152706E0,-2.6493444E0,6.024269E0,1.1109942E1,2.0556501E1],"categories":[],"categories_nodes":[],"categories_segments":[],"categories_sizes":[],"default_left":[0,0,0,0,0,0,0,0,0,0,0,0,0,0,0,0,0,0,0,0,0,0,0,0,0,0,0,0,0,0,0,0,0],"id":39,"left_children":[1,3,5,-1,7,9,11,-1,13,15,17,19,21,-1,-1,-1,23,-1,-1,25,27,29,31,-1,-1,-1,-1,-1,-1,-1,-1,-1,-1],"loss_changes":[5.076523E6,1.052325E5,3.532477E6,0E0,7.9187E4,2.643715E5,2.4398482E6,0E0,4.9899094E4,6.284625E4,5.2460688E4,9.1629E5,2.492626E6,0E0,0E0,0E0,9.1216875E3,0E0,0E0,3.222859E5,6.336874E5,7.55366E5,2.520225E5,0E0,0E0,0E0,0E0,0E0,0E0,0E0,0E0,0E0,0E0],"parents":[2147483647,0,0,1,1,2,2,4,4,5,5,6,6,8,8,9,9,10,10,11,11,12,12,16,16,19,19,20,20,21,21,22,22],"right_children":[2,4,6,-1,8,10,12,-1,14,16,18,20,22,-1,-1,-1,24,-1,-1,26,28,30,32,-1,-1,-1,-1,-1,-1,-1,-1,-1,-1],"split_conditions":[-6.808408E-1,-8.2936937E-1,-1.0184401E0,-9.211565E0,1.4944E-1,7.611622E-2,3.9259693E-1,-7.175098E0,-3.4460494E-1,-1.3170356E0,-3.6823985E-1,3.955763E-1,9.194429E-1,-2.2426822E0,-5.6820493E0,-9.328053E0,5.090918E-1,-3.5844648E0,-4.1129652E-1,6.372491E-1,-8.282104E-1,-1.3903594E0,1.371503E0,-6.1494603E0,-3.5422585E0,-2.004152E0,2.1033268E0,-1.17464E0,5.152706E0,-2.6493444E0,6.024269E0,1.1109942E1,2.0556501E1],"split_indices":[6,6,0,0,3,3,5,0,4,3,5,0,3,0,0,0,2,0,0,4,3,3,3,0,0,0,0,0,0,0,0,0,0],"split_type":[0,0,0,0,0,0,0,0,0,0,0,0,0,0,0,0,0,0,0,0,0,0,0,0,0,0,0,0,0,0,0,0,0],"sum_hessian":[2.68E2,5.6E1,2.12E2,1.8E1,3.8E1,4.1E1,1.71E2,2.3E1,1.5E1,2.7E1,1.4E1,1.22E2,4.9E1,8E0,7E0,7E0,2E1,7E0,7E0,6.5E1,5.7E1,3.2E1,1.7E1,1.3E1,7E0,4.8E1,1.7E1,1.4E1,4.3E1,9E0,2.3E1,1E1,7E0],"tree_param":{"num_deleted":"0","num_feature":"8","num_nodes":"33","size_leaf_vector":"1"}},{"base_weights":[-1.380839E0,3.184122E2,-8.439739E1,1.7522034E2,1.9823309E1,-2.446422E2,-1.4672596E1,-4.5065866E0,2.890982E2,-3.1325787E2,-1.8079942E2,-6.460283E1,2.1825937E2,9.02406E-2,1.0500082E1,-9.090575E0,-4.7555776E0,-2.3193332E2,-7.800868E-1,8.99428E0,-1.806705E2,3.1764377E2,-1.1807168E0,-3.953981E0,-6.651422E0,-2.208644E0,3.5892458E0,-5.8094463E0,-2.0525527E0,3.619878E0,1.0764995E1],"categories":[],"categories_nodes":[],"categories_segments":[],"categories_sizes":[],"default_left":[0,0,0,0,0,0,0,0,0,0,0,0,0,0,0,0,0,0,0,0,0,0,0,0,0,0,0,0,0,0,0],"id":40,"left_children":[1,3,5,7,-1,9,11,-1,13,15,17,19,21,-1,-1,-1,-1,23,-1,25,27,29,-1,-1,-1,-1,-1,-1,-1,-1,-1],"loss_changes":[6.9559315E6,3.2551925E6,2.320402E6,1.710383E6,0E0,2.1934175E5,1.7121309E6,0E0,1.01900425E6,6.5716E4,2.63388E5,1.0352366E6,6.9473175E5,0E0,0E0,0E0,0E0,7.860625E3,0E0,9.069866E5,1.8003625E5,2.6106662E5,0E0,0E0,0E0,0E0,0E0,0E0,0E0,0E0,0E0],"parents":[2147483647,0,0,1,1,2,2,3,3,5,5,6,6,8,8,9,9,10,10,11,11,12,12,17,17,19,19,20,20,21,21],"right_children":[2,4,6,8,-1,10,12,-1,14,16,18,20,22,-1,-1,-1,-1,24,-1,26,28,30,-1,-1,-1,-1,-1,-1,-1,-1,-1],"split_conditions":[-9.3012375E-1,1.1591917E0,-5.589238E-1,-7.784164E-1,1.9823309E1,-8.1449836E-1,1.0328318E0,-4.5065866E0,-7.2803885E-1,1.1759729E0,2.9592645E-1,6.095178E-1,1.1072881E0,9.02406E-2,1.0500082E1,-9.090575E0,-4.7555776E0,-7.095655E-1,-7.800868E-1,3.2052884E-1,3.5087234E-1,-3.4388146E-1,-1.1807168E0,-3.953981E0,-6.651422E0,-2.208644E0,3.5892458E0,-5.8094463E0,-2.0525527E0,3.619878E0,1.0764995E1],"split_indices":[1,7,6,5,0,5,0,0,3,3,0,1,1,0,0,0,0,5,0,3,2,6,0,0,0,0,0,0,0,0,0],"split_type":[0,0,0,0,0,0,0,0,0,0,0,0,0,0,0,0,0,0,0,0,0,0,0,0,0,0,0,0,0,0,0],"sum_hessian":[2.6E2,5.3E1,2.07E2,4.1E1,1.2E1,6.2E1,1.45E2,1E1,3.1E1,2.8E1,3.4E1,1.2E2,2.5E1,9E0,2.2E1,2.1E1,7E0,2.5E1,9E0,7.4E1,4.6E1,1.8E1,7E0,7E0,1.8E1,4.3E1,3.1E1,3.2E1,1.4E1,7E0,1.1E1],"tree_param":{"num_deleted":"0","num_feature":"8","num_nodes":"31","size_leaf_vector":"1"}},{"base_weights":[2.3456833E1,2.71197E2,-8.903437E1,1.4193459E2,6.0223224E2,-2.0868277E2,1.0172075E1,-4.309587E0,2.1263335E2,6.3743105E0,2.3870825E1,-1.6815442E2,-8.393504E0,-2.0024755E1,9.530247E0,-2.2743468E0,2.9931406E2,-1.9718643E2,-7.4248207E-1,3.781139E1,-1.8116496E2,4.6814003E0,1.0329679E1,-6.8809237E0,-3.4518108E0,-9.0812093E-1,4.2391734E0,-2.468407E0,-6.1015005E0],"categories":[],"categories_nodes":[],"categories_segments":[],"categories_sizes":[],"default_left":[0,0,0,0,0,0,0,0,0,0,0,0,0,0,0,0,0,0,0,0,0,0,0,0,0,0,0,0,0],"id":41,"left_children":[1,3,5,7,9,11,13,-1,15,-1,-1,17,-1,19,-1,-1,21,23,-1,25,27,-1,-1,-1,-1,-1,-1,-1,-1],"loss_changes":[7.4093225E6,3.4661275E6,2.174313E6,1.3563865E6,2.3276795E6,3.2170175E5,1.0855415E6,0E0,1.3237278E6,0E0,0E0,2.5014238E5,0E0,8.8290456E5,0E0,0E0,3.7615675E5,1.88053E5,0E0,6.345004E5,9.044556E4,0E0,0E0,0E0,0E0,0E0,0E0,0E0,0E0],"parents":[2147483647,0,0,1,1,2,2,3,3,4,4,5,5,6,6,8,8,11,11,13,13,16,16,17,17,19,19,20,20],"right_children":[2,4,6,8,10,12,14,-1,16,-1,-1,18,-1,20,-1,-1,22,24,-1,26,28,-1,-1,-1,-1,-1,-1,-1,-1],"split_conditions":[-6.9485015E-1,5.451748E-1,-4.6848664E-1,-6.981964E-1,2.9592645E-1,1.0917524E0,1.7408494E0,-4.309587E0,-7.005721E-1,6.3743105E0,2.3870825E1,1.1759729E0,-8.393504E0,1.1228238E0,9.530247E0,-2.2743468E0,-5.3491527E-1,-7.403732E-1,-7.4248207E-1,4.6079558E-1,1.4373364E0,4.6814003E0,1.0329679E1,-6.8809237E0,-3.4518108E0,-9.0812093E-1,4.2391734E0,-2.468407E0,-6.1015005E0],"split_indices":[1,3,7,5,0,1,0,0,0,0,0,3,0,1,0,0,3,5,0,5,1,0,0,0,0,0,0,0,0],"split_type":[0,0,0,0,0,0,0,0,0,0,0,0,0,0,0,0,0,0,0,0,0,0,0,0,0,0,0,0,0],"sum_hessian":[2.64E2,8.2E1,1.82E2,6E1,2.2E1,8.2E1,1E2,1.1E1,4.9E1,1.1E1,1.1E1,6.2E1,2E1,9.3E1,7E0,